{"learner":{"attributes":{"best_iteration":"63","best_score":"11.944161064610197","scikit_learn":"{\"_estimator_type\": \"regressor\"}"},"feature_names":["season","week","neutral_site","conference_game","home_offense_ppa","home_offense_success_rate","home_offense_explosiveness","home_offense_power_success","home_offense_stuff_rate","home_offense_line_yards","home_offense_line_yards_avg","home_offense_second_level_yards","home_offense_second_level_yards_avg","home_offense_open_field_yards","home_offense_open_field_yards_avg","home_offense_standard_downs_ppa","home_offense_standard_downs_success_rate","home_offense_passing_downs_ppa","home_offense_passing_downs_success_rate","home_offense_rushing_plays_ppa","home_offense_rushing_plays_success_rate","home_offense_passing_plays_ppa","home_offense_passing_plays_success_rate","home_defense_ppa","home_defense_success_rate","home_defense_explosiveness","home_defense_power_success","home_defense_stuff_rate","home_defense_line_yards","home_defense_line_yards_avg","home_defense_second_level_yards","home_defense_second_level_yards_avg","home_defense_open_field_yards","home_defense_open_field_yards_avg","home_defense_standard_downs_ppa","home_defense_standard_downs_success_rate","home_defense_passing_downs_ppa","home_defense_passing_downs_success_rate","home_defense_rushing_plays_ppa","home_defense_rushing_plays_success_rate","home_defense_passing_plays_ppa","home_defense_passing_plays_success_rate","home_overall_ppa","home_passing_ppa","home_rushing_ppa","home_sp_rating","home_sp_ranking","home_sp_offense","home_sp_defense","home_sp_special_teams","home_srs_rating","home_srs_ranking","home_elo_rating","home_fpi_rating","home_fpi_ranking","home_recruiting_rank","home_recruiting_points","away_offense_ppa","away_offense_success_rate","away_offense_explosiveness","away_offense_power_success","away_offense_stuff_rate","away_offense_line_yards","away_offense_line_yards_avg","away_offense_second_level_yards","away_offense_second_level_yards_avg","away_offense_open_field_yards","away_offense_open_field_yards_avg","away_offense_standard_downs_ppa","away_offense_standard_downs_success_rate","away_offense_passing_downs_ppa","away_offense_passing_downs_success_rate","away_offense_rushing_plays_ppa","away_offense_rushing_plays_success_rate","away_offense_passing_plays_ppa","away_offense_passing_plays_success_rate","away_defense_ppa","away_defense_success_rate","away_defense_explosiveness","away_defense_power_success","away_defense_stuff_rate","away_defense_line_yards","away_defense_line_yards_avg","away_defense_second_level_yards","away_defense_second_level_yards_avg","away_defense_open_field_yards","away_defense_open_field_yards_avg","away_defense_standard_downs_ppa","away_defense_standard_downs_success_rate","away_defense_passing_downs_ppa","away_defense_passing_downs_success_rate","away_defense_rushing_plays_ppa","away_defense_rushing_plays_success_rate","away_defense_passing_plays_ppa","away_defense_passing_plays_success_rate","away_elo_rating","home_rolling_games_played","home_rolling_wins","home_rolling_win_pct","home_rolling_points_scored","home_rolling_points_allowed","home_rolling_point_diff","home_rolling_total_points","away_rolling_games_played","away_rolling_wins","away_rolling_win_pct","away_rolling_points_scored","away_rolling_points_allowed","away_rolling_point_diff","away_rolling_total_points","betting_spread","betting_over_under","betting_home_moneyline","betting_away_moneyline","away_overall_ppa","away_passing_ppa","away_rushing_ppa","away_sp_rating","away_sp_ranking","away_sp_offense","away_sp_defense","away_sp_special_teams","away_srs_rating","away_srs_ranking","away_fpi_rating","away_fpi_ranking","away_recruiting_rank","away_recruiting_points"],"feature_types":["int","int","int","int","float","float","float","float","float","float","float","float","float","float","float","float","float","float","float","float","float","float","float","float","float","float","float","float","float","float","float","float","float","float","float","float","float","float","float","float","float","float","float","float","float","float","float","float","float","float","float","float","float","float","float","float","float","float","float","float","float","float","float","float","float","float","float","float","float","float","float","float","float","float","float","float","float","float","float","float","float","float","float","float","float","float","float","float","float","float","float","float","float","float","float","float","int","int","float","float","float","float","float","int","int","float","float","float","float","float","float","float","float","float","float","float","float","float","float","float","float","float","float","float","float","float","float","float"],"gradient_booster":{"model":{"cats":{"enc":[],"feature_segments":[],"sorted_idx":[]},"gbtree_model_param":{"num_parallel_tree":"1","num_trees":"114"},"iteration_indptr":[0,1,2,3,4,5,6,7,8,9,10,11,12,13,14,15,16,17,18,19,20,21,22,23,24,25,26,27,28,29,30,31,32,33,34,35,36,37,38,39,40,41,42,43,44,45,46,47,48,49,50,51,52,53,54,55,56,57,58,59,60,61,62,63,64,65,66,67,68,69,70,71,72,73,74,75,76,77,78,79,80,81,82,83,84,85,86,87,88,89,90,91,92,93,94,95,96,97,98,99,100,101,102,103,104,105,106,107,108,109,110,111,112,113,114],"tree_info":[0,0,0,0,0,0,0,0,0,0,0,0,0,0,0,0,0,0,0,0,0,0,0,0,0,0,0,0,0,0,0,0,0,0,0,0,0,0,0,0,0,0,0,0,0,0,0,0,0,0,0,0,0,0,0,0,0,0,0,0,0,0,0,0,0,0,0,0,0,0,0,0,0,0,0,0,0,0,0,0,0,0,0,0,0,0,0,0,0,0,0,0,0,0,0,0,0,0,0,0,0,0,0,0,0,0,0,0,0,0,0,0,0,0],"trees":[{"base_weights":[2.826248E-3,-4.6401772E0,3.8096828E0,-5.4393573E0,6.9994907E0,-6.6377587E0,5.34396E0,-1.1718693E1,-4.413297E0,4.200627E0,1.1335591E1,-1.1716554E1,-3.856766E0,2.1499088E0,9.664102E0,-1.5628858E1,-1.0157804E1,-5.531256E0,-1.5368675E-1,-1.7564895E0,6.367718E0,5.061054E0,1.3131425E1,-1.224817E1,-1.8471036E0,-7.947666E0,-7.62447E-1,1.1167513E0,9.783726E0,3.6198149E0,1.0686069E1,-1.5991342E1,1.343805E-1,-1.19010105E1,-5.855966E0,-8.16113E0,-4.253502E0,-3.0206668E0,2.518726E0,-5.3368235E0,7.5278964E0,7.719996E0,-1.7875332E-1,5.9204E-1,1.4386781E1,1.0248331E1,1.7344013E1,-1.4155242E1,-9.590835E0,8.1438047E-1,-5.8560567E0,-9.97664E0,-3.0982113E0,-2.0342655E0,7.931557E0,-4.1522294E-1,4.368643E0,8.820709E0,2.215458E1,9.319544E0,-2.7135915E-1,1.7044968E1,9.742896E0,-4.6316376E-1,-1.6334728E0,-1.2546438E0,-5.6968087E-1,-6.4881855E-1,1.3143805E0,-1.00048E0,-5.934561E-1,-4.790569E-1,-7.5785527E-3,-7.662346E-2,-5.969319E-1,-5.0345564E-1,3.3173355E-1,4.6540767E-1,-7.182523E-1,1.3786781E0,-2.4887805E-1,5.202759E-1,1.3634357E0,-3.5367E-1,5.027051E-1,-3.1417635E-1,5.386781E-1,3.3223173E-1,1.8654078E0,1.2044289E0,6.6341475E-2,1.5251153E0,2.8943806E0,-1.4770446E0,-5.4393905E-1,-1.1964718E0,-6.347739E-1,1.3223171E-1,-8.395772E-1,-1.2143189E0,-6.7557627E-1,-4.9274063E-1,8.186781E-1,-2.5917906E-1,7.4677724E-1,-1.1723693E-1,1.2528613E0,-2.7092832E-1,2.1119483E-1,1.3391516E-1,6.5406847E-1,-6.1492372E-2,9.7198486E-1,2.4161851E0,4.5723173E-1,6.425326E-1,1.548817E0,-5.952918E-1,1.8375061E-1,1.1227363E0,2.0306685E0,7.473508E-1,1.2494301E0],"categories":[],"categories_nodes":[],"categories_segments":[],"categories_sizes":[],"default_left":[0,0,0,0,0,0,0,0,0,0,0,0,0,0,0,0,0,0,0,0,0,0,0,0,0,0,0,0,0,0,0,0,0,0,0,0,0,0,0,0,0,0,0,0,0,0,0,0,0,0,0,0,0,0,0,0,0,0,0,0,0,0,0,0,0,0,0,0,0,0,0,0,0,0,0,0,0,0,0,0,0,0,0,0,0,0,0,0,0,0,0,0,0,0,0,0,0,0,0,0,0,0,0,0,0,0,0,0,0,0,0,0,0,0,0,0,0,0,0,0,0,0,0],"id":0,"left_children":[1,3,5,7,9,11,13,15,17,19,21,23,25,27,29,31,33,35,37,39,41,43,45,47,49,51,53,55,57,59,61,63,-1,65,67,69,71,73,75,77,79,81,83,85,87,89,91,93,95,-1,97,99,101,103,105,107,109,111,113,115,117,119,121,-1,-1,-1,-1,-1,-1,-1,-1,-1,-1,-1,-1,-1,-1,-1,-1,-1,-1,-1,-1,-1,-1,-1,-1,-1,-1,-1,-1,-1,-1,-1,-1,-1,-1,-1,-1,-1,-1,-1,-1,-1,-1,-1,-1,-1,-1,-1,-1,-1,-1,-1,-1,-1,-1,-1,-1,-1,-1,-1,-1],"loss_changes":[2.0612875E5,4.891178E4,1.02751016E5,3.1628375E4,4.0544043E3,1.1550691E4,7.708667E4,4.0525469E3,2.013318E4,2.6834753E3,1.4209199E3,1.4989414E3,6.7282896E3,2.533768E4,1.4631844E4,1.2211875E3,3.6498086E3,1.1219039E4,6.749952E3,1.9016823E3,1.3469829E3,1.2834631E3,1.0610723E3,1.2578633E3,6.8854E2,2.2223164E3,3.3775222E3,1.4110313E4,4.3673906E3,7.654158E3,1.20149375E4,6.6939453E2,0E0,1.3380586E3,1.8270215E3,4.4315625E3,5.061453E3,2.820629E3,2.7673494E3,7.894763E2,1.0374038E3,1.8049331E3,4.8976117E2,4.1078162E2,4.101787E2,1.0764985E3,5.2964355E2,7.6685547E2,8.32501E2,0E0,2.2987418E2,1.0414521E3,1.4646687E3,1.428523E3,1.646887E3,1.1171675E4,5.959465E3,3.034746E3,8.42417E2,2.3999531E3,2.479157E3,4.724586E3,1.096475E4,0E0,0E0,0E0,0E0,0E0,0E0,0E0,0E0,0E0,0E0,0E0,0E0,0E0,0E0,0E0,0E0,0E0,0E0,0E0,0E0,0E0,0E0,0E0,0E0,0E0,0E0,0E0,0E0,0E0,0E0,0E0,0E0,0E0,0E0,0E0,0E0,0E0,0E0,0E0,0E0,0E0,0E0,0E0,0E0,0E0,0E0,0E0,0E0,0E0,0E0,0E0,0E0,0E0,0E0,0E0,0E0,0E0,0E0,0E0,0E0],"parents":[2147483647,0,0,1,1,2,2,3,3,4,4,5,5,6,6,7,7,8,8,9,9,10,10,11,11,12,12,13,13,14,14,15,15,16,16,17,17,18,18,19,19,20,20,21,21,22,22,23,23,24,24,25,25,26,26,27,27,28,28,29,29,30,30,31,31,33,33,34,34,35,35,36,36,37,37,38,38,39,39,40,40,41,41,42,42,43,43,44,44,45,45,46,46,47,47,48,48,50,50,51,51,52,52,53,53,54,54,55,55,56,56,57,57,58,58,59,59,60,60,61,61,62,62],"right_children":[2,4,6,8,10,12,14,16,18,20,22,24,26,28,30,32,34,36,38,40,42,44,46,48,50,52,54,56,58,60,62,64,-1,66,68,70,72,74,76,78,80,82,84,86,88,90,92,94,96,-1,98,100,102,104,106,108,110,112,114,116,118,120,122,-1,-1,-1,-1,-1,-1,-1,-1,-1,-1,-1,-1,-1,-1,-1,-1,-1,-1,-1,-1,-1,-1,-1,-1,-1,-1,-1,-1,-1,-1,-1,-1,-1,-1,-1,-1,-1,-1,-1,-1,-1,-1,-1,-1,-1,-1,-1,-1,-1,-1,-1,-1,-1,-1,-1,-1,-1,-1,-1,-1],"split_conditions":[2.46E1,3E0,-1.15E1,-2.05E1,9E0,-2.4E1,2.84E1,-3.55E1,3.46E1,4.6E1,5.8441922E-2,3.429438E-1,4E-1,6.5E0,2.86E1,5.156576E-1,4.198113E-1,-1.28E1,1.62E1,9.268366E-2,1.2098501E0,5E-1,1.317031E-1,3.888889E-1,3.6701968E-1,2.7098972E-1,6.95E1,3.7E1,2.7625E1,-1.28E1,1.276E3,6.666667E-1,1.343805E-1,1.4730769E0,3.5089219E0,2.5333334E1,1.541973E-1,1.98E1,1.9383675E-1,-1.7723E1,-4.5E0,3.3E0,1.5009346E0,4.1095892E-1,1.002E3,2.25E1,1.9955752E0,2.2666667E-1,3E0,8.1438047E-1,5E0,1.8125701E-1,8E1,4.9765188E-1,1.0582877E0,2.18E1,1.88E1,2.67E1,2.1E1,1.2776413E0,6.7E1,1.494E3,1.08E1,-4.6316376E-1,-1.6334728E0,-1.2546438E0,-5.6968087E-1,-6.4881855E-1,1.3143805E0,-1.00048E0,-5.934561E-1,-4.790569E-1,-7.5785527E-3,-7.662346E-2,-5.969319E-1,-5.0345564E-1,3.3173355E-1,4.6540767E-1,-7.182523E-1,1.3786781E0,-2.4887805E-1,5.202759E-1,1.3634357E0,-3.5367E-1,5.027051E-1,-3.1417635E-1,5.386781E-1,3.3223173E-1,1.8654078E0,1.2044289E0,6.6341475E-2,1.5251153E0,2.8943806E0,-1.4770446E0,-5.4393905E-1,-1.1964718E0,-6.347739E-1,1.3223171E-1,-8.395772E-1,-1.2143189E0,-6.7557627E-1,-4.9274063E-1,8.186781E-1,-2.5917906E-1,7.4677724E-1,-1.1723693E-1,1.2528613E0,-2.7092832E-1,2.1119483E-1,1.3391516E-1,6.5406847E-1,-6.1492372E-2,9.7198486E-1,2.4161851E0,4.5723173E-1,6.425326E-1,1.548817E0,-5.952918E-1,1.8375061E-1,1.1227363E0,2.0306685E0,7.473508E-1,1.2494301E0],"split_indices":[106,110,110,110,110,110,100,110,100,111,68,74,24,110,119,39,41,108,106,68,64,105,38,41,74,74,111,106,124,50,52,79,0,66,81,100,23,99,70,53,50,122,32,58,52,99,66,80,103,0,55,36,55,21,64,100,100,119,45,30,46,95,108,0,0,0,0,0,0,0,0,0,0,0,0,0,0,0,0,0,0,0,0,0,0,0,0,0,0,0,0,0,0,0,0,0,0,0,0,0,0,0,0,0,0,0,0,0,0,0,0,0,0,0,0,0,0,0,0,0,0,0,0],"split_type":[0,0,0,0,0,0,0,0,0,0,0,0,0,0,0,0,0,0,0,0,0,0,0,0,0,0,0,0,0,0,0,0,0,0,0,0,0,0,0,0,0,0,0,0,0,0,0,0,0,0,0,0,0,0,0,0,0,0,0,0,0,0,0,0,0,0,0,0,0,0,0,0,0,0,0,0,0,0,0,0,0,0,0,0,0,0,0,0,0,0,0,0,0,0,0,0,0,0,0,0,0,0,0,0,0,0,0,0,0,0,0,0,0,0,0,0,0,0,0,0,0,0,0],"sum_hessian":[1.166E4,5.253E3,6.407E3,4.916E3,3.37E2,8.2E2,5.587E3,6.89E2,4.227E3,2.06E2,1.31E2,2.89E2,5.31E2,3.213E3,2.374E3,1.94E2,4.95E2,3.348E3,8.79E2,5.5E1,1.51E2,3E1,1.01E2,2.74E2,1.5E1,2.28E2,3.03E2,2.831E3,3.82E2,3.44E2,2.03E3,1.9E2,4E0,3.51E2,1.44E2,1.093E3,2.255E3,4.24E2,4.55E2,4E1,1.5E1,1.25E2,2.6E1,2.1E1,9E0,6.2E1,3.9E1,1.57E2,1.17E2,4E0,1.1E1,1.6E2,6.8E1,2.65E2,3.8E1,1.925E3,9.06E2,3.56E2,2.6E1,1.39E2,2.05E2,2.6E2,1.77E3,6E0,1.84E2,3.17E2,3.4E1,1.4E2,4E0,5.96E2,4.97E2,1.998E3,2.57E2,2.41E2,1.83E2,4.3E1,4.12E2,6E0,3.4E1,9E0,6E0,8.9E1,3.6E1,1.6E1,1E1,1.2E1,9E0,3E0,6E0,5.2E1,1E1,3.5E1,4E0,1.46E2,1.1E1,6.6E1,5.1E1,3E0,8E0,9.4E1,6.6E1,5.9E1,9E0,2.51E2,1.4E1,1.3E1,2.5E1,1.009E3,9.16E2,3.79E2,5.27E2,3.1E1,3.25E2,2.3E1,3E0,9.6E1,4.3E1,5.5E1,1.5E2,9.5E1,1.65E2,9.72E2,7.98E2],"tree_param":{"num_deleted":"0","num_feature":"128","num_nodes":"123","size_leaf_vector":"1"}},{"base_weights":[1.0532189E-1,-4.1502695E0,3.471708E0,-4.886928E0,4.829885E0,5.54612E-1,8.022161E0,-1.0607622E1,-3.891251E0,2.2268667E0,9.297396E0,-6.533211E0,2.038342E0,-1.0356828E0,9.350349E0,-1.3949949E1,-8.572178E0,-4.97707E0,3.817217E-1,-6.331707E-1,5.84667E0,6.9928293E0,1.5541902E1,-9.610152E0,-4.272752E0,1.1297195E0,8.45606E0,-9.191865E0,7.9419255E-1,7.546135E0,1.339289E1,-1.4253567E1,4.7495803E-1,-8.9477215E0,6.9557285E0,-5.468853E0,-1.1660787E-1,-1.7434261E0,3.511036E0,4.658924E0,-2.1810043E0,-4.5383577E0,7.164616E0,-3.718661E0,8.135444E0,5.200091E0,1.812638E1,-1.5272299E0,-1.0397431E1,-7.674705E0,-2.4042265E0,-9.362609E-1,3.2662945E0,6.276905E0,1.4527544E1,-1.381937E1,-6.8796153E0,-6.4804274E-1,9.279319E0,1.0676331E1,6.140014E0,1.1703358E1,2.221369E1,-1.4426628E0,5.1552583E-2,-1.0409428E0,-5.6548595E-1,1.4718486E0,-5.3032774E-1,-4.576759E-1,-7.871534E-1,-1.3853782E-1,4.213853E-1,-2.415174E-2,-4.1090438E-1,-9.6770346E-1,4.0325698E-1,7.567913E-1,-3.6160383E-1,1.6095378E-1,-4.3158707E-1,4.1542777E-1,-8.863339E-1,-6.66119E-1,8.138704E-1,-6.8985486E-1,-1.6638847E-1,6.090564E-1,1.3211406E0,8.440281E-1,-9.602165E-2,7.716124E-1,1.9431187E0,-4.1359696E-1,5.185523E-1,-1.3138269E0,-7.7798605E-1,-1.0012841E0,-2.4641724E-1,-2.9406402E-1,8.882006E-1,-1.8429339E-1,5.241813E-1,2.9547438E-1,1.5144315E0,1.6469748E-1,8.8832027E-1,1.8883814E0,1.0932918E0,-1.6895993E0,-7.477016E-1,5.355098E-1,-8.6776876E-1,-3.2431278E-1,4.3532354E-1,3.3774233E-1,1.5977229E0,6.5681463E-1,1.3108171E0,5.23699E-1,1.0797944E0,1.0591083E0,2.1110945E0,1.8262867E0,3.2008762E0],"categories":[],"categories_nodes":[],"categories_segments":[],"categories_sizes":[],"default_left":[0,0,0,0,0,0,0,0,0,0,0,0,0,0,0,0,0,0,0,0,0,0,0,0,0,0,0,0,0,0,0,0,0,0,0,0,0,0,0,0,0,0,0,0,0,0,0,0,0,0,0,0,0,0,0,0,0,0,0,0,0,0,0,0,0,0,0,0,0,0,0,0,0,0,0,0,0,0,0,0,0,0,0,0,0,0,0,0,0,0,0,0,0,0,0,0,0,0,0,0,0,0,0,0,0,0,0,0,0,0,0,0,0,0,0,0,0,0,0,0,0,0,0,0,0],"id":1,"left_children":[1,3,5,7,9,11,13,15,17,19,21,23,25,27,29,31,33,35,37,39,41,43,45,47,49,51,53,55,57,59,61,63,-1,65,67,69,71,73,75,77,79,81,83,85,87,89,91,93,95,97,99,101,103,105,107,109,111,113,115,117,119,121,123,-1,-1,-1,-1,-1,-1,-1,-1,-1,-1,-1,-1,-1,-1,-1,-1,-1,-1,-1,-1,-1,-1,-1,-1,-1,-1,-1,-1,-1,-1,-1,-1,-1,-1,-1,-1,-1,-1,-1,-1,-1,-1,-1,-1,-1,-1,-1,-1,-1,-1,-1,-1,-1,-1,-1,-1,-1,-1,-1,-1,-1,-1],"loss_changes":[1.6749925E5,3.4185047E4,8.664893E4,2.7145562E4,4.537869E3,4.1858137E4,3.0687531E4,4.6902188E3,1.8871457E4,2.5815425E3,1.9636045E3,4.7511387E3,1.9181203E4,4.887708E3,1.6119906E4,1.5779141E3,2.6397188E3,7.751078E3,5.492582E3,1.1569406E3,1.538075E3,1.3398364E3,9.214131E2,1.8359043E3,2.5178457E3,1.2733385E4,5.3069395E3,5.469253E2,3.2856763E3,6.712664E3,9.948594E3,6.7709766E2,0E0,2.0204375E3,1.1248567E3,6.276336E3,1.6486516E3,1.7470552E3,2.3362842E3,7.976628E2,8.890075E2,5.2556195E2,1.3740322E3,6.0395157E1,9.2636865E2,1.8774959E2,2.575664E2,4.9426642E2,1.7989844E3,1.6931201E3,1.5941276E3,8.227051E3,5.202717E3,3.6295977E3,1.4690762E3,2.4441602E2,9.704237E2,2.9992288E3,1.4877222E3,4.6693555E3,4.423078E3,5.814039E3,3.6335742E3,0E0,0E0,0E0,0E0,0E0,0E0,0E0,0E0,0E0,0E0,0E0,0E0,0E0,0E0,0E0,0E0,0E0,0E0,0E0,0E0,0E0,0E0,0E0,0E0,0E0,0E0,0E0,0E0,0E0,0E0,0E0,0E0,0E0,0E0,0E0,0E0,0E0,0E0,0E0,0E0,0E0,0E0,0E0,0E0,0E0,0E0,0E0,0E0,0E0,0E0,0E0,0E0,0E0,0E0,0E0,0E0,0E0,0E0,0E0,0E0,0E0,0E0],"parents":[2147483647,0,0,1,1,2,2,3,3,4,4,5,5,6,6,7,7,8,8,9,9,10,10,11,11,12,12,13,13,14,14,15,15,16,16,17,17,18,18,19,19,20,20,21,21,22,22,23,23,24,24,25,25,26,26,27,27,28,28,29,29,30,30,31,31,33,33,34,34,35,35,36,36,37,37,38,38,39,39,40,40,41,41,42,42,43,43,44,44,45,45,46,46,47,47,48,48,49,49,50,50,51,51,52,52,53,53,54,54,55,55,56,56,57,57,58,58,59,59,60,60,61,61,62,62],"right_children":[2,4,6,8,10,12,14,16,18,20,22,24,26,28,30,32,34,36,38,40,42,44,46,48,50,52,54,56,58,60,62,64,-1,66,68,70,72,74,76,78,80,82,84,86,88,90,92,94,96,98,100,102,104,106,108,110,112,114,116,118,120,122,124,-1,-1,-1,-1,-1,-1,-1,-1,-1,-1,-1,-1,-1,-1,-1,-1,-1,-1,-1,-1,-1,-1,-1,-1,-1,-1,-1,-1,-1,-1,-1,-1,-1,-1,-1,-1,-1,-1,-1,-1,-1,-1,-1,-1,-1,-1,-1,-1,-1,-1,-1,-1,-1,-1,-1,-1,-1,-1,-1,-1,-1,-1],"split_conditions":[2.42E1,1.5E0,2.86E1,-2.05E1,8E0,-1.05E1,-6E0,-3.3E1,3.5E1,1.3508772E0,1.2435733E0,-2.2E1,3.66E1,-2.45E1,4E0,5.465925E-1,3.607563E0,3.1432372E-1,1.78E1,3E0,4.6910644E-2,4.0186915E-1,-5.569463E0,5.1E1,1.2870812E-1,2.16E1,1.6775633E-1,2.4960063E-1,3.28E1,-1.84E1,4.4E1,4.634885E-1,4.7495803E-1,3.2231405E-1,3.9767054E-1,9E0,1.6653875E-1,2.14E1,1.5459454E-1,1.2595534E-1,1.0719424E0,-2.05E1,8.673577E-2,1.5328467E-1,1.85E1,2.325E1,-2.311118E-2,4.2237443E-1,7.1508385E-2,4.4501278E-1,3.508427E-1,4.42E1,5.05E1,4.5776567E-1,1.09455615E-1,1.9003691E-1,2.885089E-1,1.5750216E-1,3.2043332E-1,2E0,4.375E-1,4.28E1,3.86E1,-1.4426628E0,5.1552583E-2,-1.0409428E0,-5.6548595E-1,1.4718486E0,-5.3032774E-1,-4.576759E-1,-7.871534E-1,-1.3853782E-1,4.213853E-1,-2.415174E-2,-4.1090438E-1,-9.6770346E-1,4.0325698E-1,7.567913E-1,-3.6160383E-1,1.6095378E-1,-4.3158707E-1,4.1542777E-1,-8.863339E-1,-6.66119E-1,8.138704E-1,-6.8985486E-1,-1.6638847E-1,6.090564E-1,1.3211406E0,8.440281E-1,-9.602165E-2,7.716124E-1,1.9431187E0,-4.1359696E-1,5.185523E-1,-1.3138269E0,-7.7798605E-1,-1.0012841E0,-2.4641724E-1,-2.9406402E-1,8.882006E-1,-1.8429339E-1,5.241813E-1,2.9547438E-1,1.5144315E0,1.6469748E-1,8.8832027E-1,1.8883814E0,1.0932918E0,-1.6895993E0,-7.477016E-1,5.355098E-1,-8.6776876E-1,-3.2431278E-1,4.3532354E-1,3.3774233E-1,1.5977229E0,6.5681463E-1,1.3108171E0,5.23699E-1,1.0797944E0,1.0591083E0,2.1110945E0,1.8262867E0,3.2008762E0],"split_indices":[106,110,100,110,110,110,110,110,100,32,25,110,119,110,104,35,81,36,106,1,57,58,122,123,40,100,23,36,119,101,106,70,0,37,73,101,34,99,70,72,64,50,23,27,110,107,19,94,23,58,40,106,106,75,19,8,36,38,36,104,75,100,100,0,0,0,0,0,0,0,0,0,0,0,0,0,0,0,0,0,0,0,0,0,0,0,0,0,0,0,0,0,0,0,0,0,0,0,0,0,0,0,0,0,0,0,0,0,0,0,0,0,0,0,0,0,0,0,0,0,0,0,0,0,0],"split_type":[0,0,0,0,0,0,0,0,0,0,0,0,0,0,0,0,0,0,0,0,0,0,0,0,0,0,0,0,0,0,0,0,0,0,0,0,0,0,0,0,0,0,0,0,0,0,0,0,0,0,0,0,0,0,0,0,0,0,0,0,0,0,0,0,0,0,0,0,0,0,0,0,0,0,0,0,0,0,0,0,0,0,0,0,0,0,0,0,0,0,0,0,0,0,0,0,0,0,0,0,0,0,0,0,0,0,0,0,0,0,0,0,0,0,0,0,0,0,0,0,0,0,0,0,0],"sum_hessian":[1.169E4,5.163E3,6.527E3,4.772E3,3.91E2,3.978E3,2.549E3,7.06E2,4.066E3,2.48E2,1.43E2,6.88E2,3.29E3,3.26E2,2.223E3,2.65E2,4.41E2,3.242E3,8.24E2,1.39E2,1.09E2,1.06E2,3.7E1,2.9E2,3.98E2,2.883E3,4.07E2,5.9E1,2.67E2,1.539E3,6.84E2,2.61E2,4E0,4.31E2,1E1,2.944E3,2.98E2,4.91E2,3.33E2,3.1E1,1.08E2,1.2E1,9.7E1,1E1,9.6E1,8E0,2.9E1,2.6E1,2.64E2,1.4E2,2.58E2,1.466E3,1.417E3,3.01E2,1.06E2,1.8E1,4.1E1,2.29E2,3.8E1,4.75E2,1.064E3,5.76E2,1.08E2,2.58E2,3E0,2.97E2,1.34E2,6E0,4E0,2.149E3,7.95E2,2.31E2,6.7E1,3.01E2,1.9E2,1.2E1,3.21E2,2.3E1,8E0,3.9E1,6.9E1,4E0,8E0,6E0,9.1E1,3E0,7E0,7E1,2.6E1,5E0,3E0,4E0,2.5E1,1.9E1,7E0,1.27E2,1.37E2,9.6E1,4.4E1,2.47E2,1.1E1,1.279E3,1.87E2,1.382E3,3.5E1,1.09E2,1.92E2,4.6E1,6E1,1.1E1,7E0,5E0,3.6E1,1.51E2,7.8E1,2.1E1,1.7E1,1.78E2,2.97E2,8.93E2,1.71E2,5.17E2,5.9E1,7.9E1,2.9E1],"tree_param":{"num_deleted":"0","num_feature":"128","num_nodes":"125","size_leaf_vector":"1"}},{"base_weights":[6.457698E-3,-3.9858396E0,2.8625436E0,-4.8756027E0,2.5306952E0,-5.3363425E-1,5.8486614E0,-9.4721575E0,-4.0259132E0,8.297429E-1,8.783562E0,-7.1310043E0,5.7823306E-1,-2.3357635E0,6.9069285E0,-1.0418465E1,-5.20216E0,-5.1935267E0,-8.646862E-1,-4.115476E-1,7.7691164E0,7.441168E0,1.9776405E1,-8.131678E0,-9.402824E-1,-5.201184E-2,9.593152E0,-9.730627E0,-6.22346E-1,4.8397493E0,9.674229E0,-1.0872027E1,-3.4987788E0,-6.1009827E0,1.0564183E1,-7.0405273E0,-3.2180722E0,-3.460114E0,1.1351715E0,-2.0514455E0,3.556306E0,1.3377433E1,3.2284434E0,-1.0577514E0,9.392635E0,2.2587466E0,7.8046566E-1,-1.0760324E1,-5.858101E0,-2.7064521E0,1.0349936E1,-6.382544E0,4.668182E-1,8.285631E0,1.950828E1,6.4811134E-1,-1.0763011E1,-1.8043337E0,7.528601E0,3.9846032E0,9.93922E0,5.034533E0,1.1073266E1,-1.1688868E0,-7.6408094E-1,1.1137316E-2,-9.616834E-1,9.778752E-3,-7.537517E-1,1.1785855E-1,1.7308735E0,-5.977016E-1,-1.0530925E0,-2.223215E-1,-5.8057284E-1,-2.7869445E-1,-8.342044E-1,-6.429653E-1,2.1580529E-1,-1.6553755E-1,-1.3705609E0,4.8311463E-1,-3.5820633E-1,3.1112847E-1,1.6242088E0,-5.558324E-2,8.939597E-1,2.3865981E-1,-7.383688E-1,-1.8711135E-1,1.0061485E0,-1.2044356E0,-6.4593995E-1,-7.0247006E-1,-1.0554673E-1,-7.008764E-1,-5.41058E-2,1.04634665E-1,1.7583536E0,-9.8001045E-1,-2.969602E-1,-4.304991E-2,5.1759005E-1,2.3172612E-1,1.0013632E0,6.707222E-1,2.228934E0,2.5314686E-1,-1.8681131E-1,-1.3775877E0,-7.622112E-1,-4.789403E-1,9.175032E-3,3.4996387E-1,1.4816022E0,7.304063E-1,2.551898E-1,7.1801025E-1,1.5075353E0,3.5467905E-1,1.5322869E0,9.362473E-1,1.8396218E0],"categories":[],"categories_nodes":[],"categories_segments":[],"categories_sizes":[],"default_left":[0,0,0,0,0,0,0,0,0,0,0,0,0,0,0,0,0,0,0,0,0,0,0,0,0,0,0,0,0,0,0,0,0,0,0,0,0,0,0,0,0,0,0,0,0,0,0,0,0,0,0,0,0,0,0,0,0,0,0,0,0,0,0,0,0,0,0,0,0,0,0,0,0,0,0,0,0,0,0,0,0,0,0,0,0,0,0,0,0,0,0,0,0,0,0,0,0,0,0,0,0,0,0,0,0,0,0,0,0,0,0,0,0,0,0,0,0,0,0,0,0,0,0],"id":2,"left_children":[1,3,5,7,9,11,13,15,17,19,21,23,25,27,29,31,33,35,37,39,41,43,45,47,49,51,53,55,57,59,61,63,65,67,69,71,73,75,77,79,81,83,85,87,89,-1,-1,91,93,95,97,99,101,103,105,107,109,111,113,115,117,119,121,-1,-1,-1,-1,-1,-1,-1,-1,-1,-1,-1,-1,-1,-1,-1,-1,-1,-1,-1,-1,-1,-1,-1,-1,-1,-1,-1,-1,-1,-1,-1,-1,-1,-1,-1,-1,-1,-1,-1,-1,-1,-1,-1,-1,-1,-1,-1,-1,-1,-1,-1,-1,-1,-1,-1,-1,-1,-1,-1,-1],"loss_changes":[1.3298555E5,2.8214656E4,6.8954414E4,1.6678016E4,6.214671E3,2.3345367E4,3.1352742E4,2.6409688E3,1.3335109E4,3.9741494E3,1.6974307E3,2.8358086E3,1.5477193E4,5.2521963E3,1.8281672E4,1.6724492E3,1.8075029E3,9.60618E3,5.0698423E3,2.5579905E3,1.7393984E3,1.8840815E3,2.6120605E2,2.2976543E3,1.3241404E3,8.368525E3,2.145995E3,8.427334E2,3.269984E3,7.9668164E3,8.83057E3,1.2594141E3,7.741198E2,1.0425923E3,4.2271167E2,4.996617E3,3.2745361E3,1.373457E3,4.2852065E3,1.2605225E3,1.0638376E3,8.61145E2,8.6947205E2,4.9697412E2,7.1193164E2,0E0,0E0,9.272988E2,1.1915737E3,5.272313E2,5.8728754E2,2.222037E3,9.953376E3,1.6166172E3,5.625117E2,4.2640663E1,5.668799E2,1.6757822E3,1.2106616E3,7.467E3,3.6187832E3,4.828393E3,1.2994758E4,0E0,0E0,0E0,0E0,0E0,0E0,0E0,0E0,0E0,0E0,0E0,0E0,0E0,0E0,0E0,0E0,0E0,0E0,0E0,0E0,0E0,0E0,0E0,0E0,0E0,0E0,0E0,0E0,0E0,0E0,0E0,0E0,0E0,0E0,0E0,0E0,0E0,0E0,0E0,0E0,0E0,0E0,0E0,0E0,0E0,0E0,0E0,0E0,0E0,0E0,0E0,0E0,0E0,0E0,0E0,0E0,0E0,0E0,0E0,0E0],"parents":[2147483647,0,0,1,1,2,2,3,3,4,4,5,5,6,6,7,7,8,8,9,9,10,10,11,11,12,12,13,13,14,14,15,15,16,16,17,17,18,18,19,19,20,20,21,21,22,22,23,23,24,24,25,25,26,26,27,27,28,28,29,29,30,30,31,31,32,32,33,33,34,34,35,35,36,36,37,37,38,38,39,39,40,40,41,41,42,42,43,43,44,44,47,47,48,48,49,49,50,50,51,51,52,52,53,53,54,54,55,55,56,56,57,57,58,58,59,59,60,60,61,61,62,62],"right_children":[2,4,6,8,10,12,14,16,18,20,22,24,26,28,30,32,34,36,38,40,42,44,46,48,50,52,54,56,58,60,62,64,66,68,70,72,74,76,78,80,82,84,86,88,90,-1,-1,92,94,96,98,100,102,104,106,108,110,112,114,116,118,120,122,-1,-1,-1,-1,-1,-1,-1,-1,-1,-1,-1,-1,-1,-1,-1,-1,-1,-1,-1,-1,-1,-1,-1,-1,-1,-1,-1,-1,-1,-1,-1,-1,-1,-1,-1,-1,-1,-1,-1,-1,-1,-1,-1,-1,-1,-1,-1,-1,-1,-1,-1,-1,-1,-1,-1,-1,-1,-1,-1,-1],"split_conditions":[2.3333334E1,-5E0,2.5E1,-2.05E1,8E0,-1.5E1,-8E0,6.15E1,3.18E1,2.5658426E-1,2.4182889E-1,4.4721234E-1,8E0,-2.7E1,3.38E1,4.7660312E-1,3.5089219E0,-6.2E0,1.4333333E1,3.0058604E-1,4.2647058E-1,4.1255605E-1,2.021E3,7.298097E-2,4.836272E-1,1.71E1,2.2E1,2.6E1,3.5714287E-1,3.48E1,5E0,2.98E1,6E-1,1.4029E2,1.2818658E-1,1.38E1,1.35E2,4.9E1,-8.5E0,4.9616858E-1,3.23935E0,5.066274E-1,1.173E3,2.570728E-1,5.822043E-2,2.2587466E0,7.8046566E-1,3.74E-1,3.65E1,1.1305326E0,3.65E1,3.3277822E-1,4.4501278E-1,2.06E1,2.9700744E0,4.8526523E-1,1.2339956E0,1.3907434E-1,2.91E1,-1.4333333E1,1E1,1.35E1,3.8333332E1,-1.1688868E0,-7.6408094E-1,1.1137316E-2,-9.616834E-1,9.778752E-3,-7.537517E-1,1.1785855E-1,1.7308735E0,-5.977016E-1,-1.0530925E0,-2.223215E-1,-5.8057284E-1,-2.7869445E-1,-8.342044E-1,-6.429653E-1,2.1580529E-1,-1.6553755E-1,-1.3705609E0,4.8311463E-1,-3.5820633E-1,3.1112847E-1,1.6242088E0,-5.558324E-2,8.939597E-1,2.3865981E-1,-7.383688E-1,-1.8711135E-1,1.0061485E0,-1.2044356E0,-6.4593995E-1,-7.0247006E-1,-1.0554673E-1,-7.008764E-1,-5.41058E-2,1.04634665E-1,1.7583536E0,-9.8001045E-1,-2.969602E-1,-4.304991E-2,5.1759005E-1,2.3172612E-1,1.0013632E0,6.707222E-1,2.228934E0,2.5314686E-1,-1.8681131E-1,-1.3775877E0,-7.622112E-1,-4.789403E-1,9.175032E-3,3.4996387E-1,1.4816022E0,7.304063E-1,2.551898E-1,7.1801025E-1,1.5075353E0,3.5467905E-1,1.5322869E0,9.362473E-1,1.8396218E0],"split_indices":[106,110,100,110,110,110,110,111,100,23,38,58,110,110,106,69,81,108,106,70,94,58,0,23,35,48,110,100,71,48,1,48,49,56,23,101,55,107,110,20,81,35,52,93,93,0,0,124,120,59,106,70,58,48,62,22,32,23,48,101,110,110,100,0,0,0,0,0,0,0,0,0,0,0,0,0,0,0,0,0,0,0,0,0,0,0,0,0,0,0,0,0,0,0,0,0,0,0,0,0,0,0,0,0,0,0,0,0,0,0,0,0,0,0,0,0,0,0,0,0,0,0,0],"split_type":[0,0,0,0,0,0,0,0,0,0,0,0,0,0,0,0,0,0,0,0,0,0,0,0,0,0,0,0,0,0,0,0,0,0,0,0,0,0,0,0,0,0,0,0,0,0,0,0,0,0,0,0,0,0,0,0,0,0,0,0,0,0,0,0,0,0,0,0,0,0,0,0,0,0,0,0,0,0,0,0,0,0,0,0,0,0,0,0,0,0,0,0,0,0,0,0,0,0,0,0,0,0,0,0,0,0,0,0,0,0,0,0,0,0,0,0,0,0,0,0,0,0,0],"sum_hessian":[1.1661E4,4.863E3,6.798E3,4.279E3,5.84E2,3.181E3,3.617E3,6.66E2,3.613E3,4.6E2,1.24E2,4.58E2,2.723E3,4.14E2,3.203E3,5.44E2,1.22E2,2.638E3,9.75E2,3.91E2,6.9E1,1.12E2,1.2E1,3.94E2,6.4E1,2.546E3,1.77E2,7.7E1,3.37E2,1.835E3,1.368E3,5.1E2,3.4E1,1.16E2,6E0,1.362E3,1.276E3,4.24E2,5.51E2,2.77E2,1.14E2,3E1,3.9E1,2.1E1,9.1E1,9E0,3E0,1.81E2,2.13E2,5.6E1,8E0,1.92E2,2.354E3,1.58E2,1.9E1,7E0,7E1,2.95E2,4.2E1,1.573E3,2.62E2,3.18E2,1.05E3,4.05E2,1.05E2,2.2E1,1.2E1,2.2E1,9.4E1,3E0,3E0,1.046E3,3.16E2,9.23E2,3.53E2,3.74E2,5E1,6.5E1,4.86E2,2.69E2,8E0,9.7E1,1.7E1,7E0,2.3E1,2.4E1,1.5E1,1.4E1,7E0,5E0,8.6E1,1.38E2,4.3E1,1.71E2,4.2E1,1.8E1,3.8E1,4E0,4E0,9.5E1,9.7E1,1.978E3,3.76E2,3.6E1,1.22E2,4E0,1.5E1,4E0,3E0,3.4E1,3.6E1,1.14E2,1.81E2,2.8E1,1.4E1,4.73E2,1.1E3,1.72E2,9E1,2.79E2,3.9E1,8.53E2,1.97E2],"tree_param":{"num_deleted":"0","num_feature":"128","num_nodes":"123","size_leaf_vector":"1"}},{"base_weights":[3.6502406E-2,-3.332046E0,2.8723593E0,-3.9670818E0,3.935787E0,6.208627E-1,7.4017596E0,-8.313124E0,-3.2411125E0,2.880295E0,1.336823E1,-6.617512E0,1.5461785E0,5.47214E0,1.2392354E1,-9.534617E0,-3.3328693E0,-4.258663E0,-5.775167E-1,1.8448309E0,7.9973736E0,4.8426175E0,1.6901241E1,-8.438134E0,-4.1461086E0,6.8276966E-1,6.8684096E0,-4.2953663E0,6.2510448E0,1.0921936E1,2.2438337E1,-1.1781352E1,-8.019766E0,-4.4319553E0,7.745275E0,-4.7246513E0,2.423251E-1,-3.6309853E0,1.2645854E0,8.194521E-1,6.533302E0,1.8847299E0,1.1529537E1,1.0683677E1,-2.5246809E0,7.9765234E0,1.9270655E1,-9.628953E0,-4.864236E0,-5.6826487E0,1.8106049E0,-5.4563265E0,1.367232E0,2.2191064E0,1.0085768E1,-9.606366E0,-3.6773956E-1,5.8200855E0,1.4064367E1,1.0118042E0,1.2011363E1,2.5813742E1,1.20340605E1,-1.2010677E0,3.8914976E-1,-8.3968204E-1,-3.618062E-2,-6.8422514E-1,-7.776328E-2,1.7241598E0,-3.451259E-2,-3.354765E-1,-6.1768854E-1,1.2064927E0,-5.4674577E-2,2.4555044E-2,-5.007674E-1,3.8848194E-1,-1.223404E-2,-4.802259E-1,1.716352E-1,1.4165752E-1,8.800414E-1,-2.8766528E-1,5.8312917E-1,9.389387E-3,1.3487251E0,4.2271137E-1,1.3712192E0,-6.548838E-1,2.1306467E-1,3.43154E-1,1.0017205E0,2.046694E0,8.4715635E-1,-6.694069E-1,-1.2080483E0,-1.1722716E0,-3.1248745E-1,-7.2597003E-1,-2.6752833E-1,2.9201327E-2,1.3293499E0,-1.0212048E0,-4.1582677E-1,-2.6464686E-1,2.3042594E-1,1.3588221E-1,1.2209562E0,8.3798546E-1,1.5227926E0,-1.3479906E0,-6.6037047E-1,-6.2454474E-1,3.3685565E-1,6.652635E-2,6.455764E-1,8.575224E-1,1.7099838E0,-2.8276205E-1,1.0670893E0,2.2386391E-1,1.2879893E0,2.0522406E0,3.281791E0,1.4940606E0,-3.3272743E-1],"categories":[],"categories_nodes":[],"categories_segments":[],"categories_sizes":[],"default_left":[0,0,0,0,0,0,0,0,0,0,0,0,0,0,0,0,0,0,0,0,0,0,0,0,0,0,0,0,0,0,0,0,0,0,0,0,0,0,0,0,0,0,0,0,0,0,0,0,0,0,0,0,0,0,0,0,0,0,0,0,0,0,0,0,0,0,0,0,0,0,0,0,0,0,0,0,0,0,0,0,0,0,0,0,0,0,0,0,0,0,0,0,0,0,0,0,0,0,0,0,0,0,0,0,0,0,0,0,0,0,0,0,0,0,0,0,0,0,0,0,0,0,0,0,0,0,0],"id":3,"left_children":[1,3,5,7,9,11,13,15,17,19,21,23,25,27,29,31,33,35,37,39,41,43,45,47,49,51,53,55,57,59,61,63,65,67,69,71,73,75,77,79,81,83,85,87,89,91,93,95,97,99,101,103,105,107,109,111,113,115,117,119,121,123,125,-1,-1,-1,-1,-1,-1,-1,-1,-1,-1,-1,-1,-1,-1,-1,-1,-1,-1,-1,-1,-1,-1,-1,-1,-1,-1,-1,-1,-1,-1,-1,-1,-1,-1,-1,-1,-1,-1,-1,-1,-1,-1,-1,-1,-1,-1,-1,-1,-1,-1,-1,-1,-1,-1,-1,-1,-1,-1,-1,-1,-1,-1,-1,-1],"loss_changes":[1.1170954E5,2.4684582E4,6.474205E4,1.5483492E4,4.242518E3,2.8422223E4,2.0232117E4,4.2448125E3,1.1418926E4,2.041084E3,1.2133604E3,2.1292695E3,1.7282684E4,1.1606164E4,8.425984E3,1.8250781E3,1.7389435E3,6.3961367E3,6.56311E3,1.5522628E3,1.3816763E3,6.2943243E2,4.8067773E2,1.1277793E3,1.8957515E3,1.3613473E4,7.8308164E3,2.3536045E3,4.6659336E3,5.537172E3,2.2881367E3,8.554258E2,9.7869727E2,1.1221033E3,1.0047283E3,5.4759766E3,2.6839824E3,2.3440771E3,2.6460784E3,1.3544861E3,6.603447E2,4.8655188E2,9.166294E2,9.846735E1,1.4508963E2,3.9824463E1,1.2374512E2,1.4012949E3,8.103534E2,7.583926E2,7.4594476E2,1.9638271E3,1.0965496E4,1.83985E3,2.5917402E3,4.6926758E2,1.4704548E3,4.380078E3,1.0696992E3,1.9586111E3,3.9010625E3,1.364875E3,9.4267993E2,0E0,0E0,0E0,0E0,0E0,0E0,0E0,0E0,0E0,0E0,0E0,0E0,0E0,0E0,0E0,0E0,0E0,0E0,0E0,0E0,0E0,0E0,0E0,0E0,0E0,0E0,0E0,0E0,0E0,0E0,0E0,0E0,0E0,0E0,0E0,0E0,0E0,0E0,0E0,0E0,0E0,0E0,0E0,0E0,0E0,0E0,0E0,0E0,0E0,0E0,0E0,0E0,0E0,0E0,0E0,0E0,0E0,0E0,0E0,0E0,0E0,0E0,0E0,0E0],"parents":[2147483647,0,0,1,1,2,2,3,3,4,4,5,5,6,6,7,7,8,8,9,9,10,10,11,11,12,12,13,13,14,14,15,15,16,16,17,17,18,18,19,19,20,20,21,21,22,22,23,23,24,24,25,25,26,26,27,27,28,28,29,29,30,30,31,31,32,32,33,33,34,34,35,35,36,36,37,37,38,38,39,39,40,40,41,41,42,42,43,43,44,44,45,45,46,46,47,47,48,48,49,49,50,50,51,51,52,52,53,53,54,54,55,55,56,56,57,57,58,58,59,59,60,60,61,61,62,62],"right_children":[2,4,6,8,10,12,14,16,18,20,22,24,26,28,30,32,34,36,38,40,42,44,46,48,50,52,54,56,58,60,62,64,66,68,70,72,74,76,78,80,82,84,86,88,90,92,94,96,98,100,102,104,106,108,110,112,114,116,118,120,122,124,126,-1,-1,-1,-1,-1,-1,-1,-1,-1,-1,-1,-1,-1,-1,-1,-1,-1,-1,-1,-1,-1,-1,-1,-1,-1,-1,-1,-1,-1,-1,-1,-1,-1,-1,-1,-1,-1,-1,-1,-1,-1,-1,-1,-1,-1,-1,-1,-1,-1,-1,-1,-1,-1,-1,-1,-1,-1,-1,-1,-1,-1,-1,-1,-1],"split_conditions":[2.45E1,-5E-1,3.02E1,-2.05E1,2.4182889E-1,-1.55E1,4E0,1.8607432E-1,3.18E1,1.9430201E-1,1.278E3,4.016563E-1,3.56E1,-1.4E1,4.58E1,-3.25E1,2.3773675E-1,3.1432372E-1,1.4E1,1.35E1,2.9411277E-1,-1.9615469E1,1.2082586E0,1.073E0,1.7449208E-1,2.23E1,2.18E1,-2.45E1,1.7E1,2.69E1,1.2176135E0,1.9955752E0,1.2259741E0,1.1907756E0,2.1211E2,1E0,3.9E1,1.1958E2,-2.04E1,1.85E1,4.0313113E-1,1.1050228E0,6.481481E-1,2.980066E-1,4.3822393E-1,1.5593347E-1,3.4868422E-1,1.2733E1,6.111111E-1,-2.15E1,4.6814406E-1,1.5E1,1.58E1,2.7625E1,1.958E3,1.0823723E0,5.85E1,4.1684902E-1,5.22E1,3.6701968E-1,2.8E1,2.023E3,1.9357278E0,-1.2010677E0,3.8914976E-1,-8.3968204E-1,-3.618062E-2,-6.8422514E-1,-7.776328E-2,1.7241598E0,-3.451259E-2,-3.354765E-1,-6.1768854E-1,1.2064927E0,-5.4674577E-2,2.4555044E-2,-5.007674E-1,3.8848194E-1,-1.223404E-2,-4.802259E-1,1.716352E-1,1.4165752E-1,8.800414E-1,-2.8766528E-1,5.8312917E-1,9.389387E-3,1.3487251E0,4.2271137E-1,1.3712192E0,-6.548838E-1,2.1306467E-1,3.43154E-1,1.0017205E0,2.046694E0,8.4715635E-1,-6.694069E-1,-1.2080483E0,-1.1722716E0,-3.1248745E-1,-7.2597003E-1,-2.6752833E-1,2.9201327E-2,1.3293499E0,-1.0212048E0,-4.1582677E-1,-2.6464686E-1,2.3042594E-1,1.3588221E-1,1.2209562E0,8.3798546E-1,1.5227926E0,-1.3479906E0,-6.6037047E-1,-6.2454474E-1,3.3685565E-1,6.652635E-2,6.455764E-1,8.575224E-1,1.7099838E0,-2.8276205E-1,1.0670893E0,2.2386391E-1,1.2879893E0,2.0522406E0,3.281791E0,1.4940606E0,-3.3272743E-1],"split_indices":[106,110,100,110,38,110,104,23,100,57,95,24,119,110,106,110,74,36,106,110,36,50,6,124,57,48,48,110,110,48,6,66,30,11,56,101,123,127,101,119,75,32,79,89,92,76,18,53,26,110,75,51,100,124,95,11,111,58,102,74,119,0,66,0,0,0,0,0,0,0,0,0,0,0,0,0,0,0,0,0,0,0,0,0,0,0,0,0,0,0,0,0,0,0,0,0,0,0,0,0,0,0,0,0,0,0,0,0,0,0,0,0,0,0,0,0,0,0,0,0,0,0,0,0,0,0,0],"split_type":[0,0,0,0,0,0,0,0,0,0,0,0,0,0,0,0,0,0,0,0,0,0,0,0,0,0,0,0,0,0,0,0,0,0,0,0,0,0,0,0,0,0,0,0,0,0,0,0,0,0,0,0,0,0,0,0,0,0,0,0,0,0,0,0,0,0,0,0,0,0,0,0,0,0,0,0,0,0,0,0,0,0,0,0,0,0,0,0,0,0,0,0,0,0,0,0,0,0,0,0,0,0,0,0,0,0,0,0,0,0,0,0,0,0,0,0,0,0,0,0,0,0,0,0,0,0,0],"sum_hessian":[1.1692E4,5.344E3,6.348E3,4.915E3,4.29E2,4.241E3,2.107E3,7.02E2,4.213E3,3.87E2,4.2E1,4.8E2,3.761E3,1.521E3,5.86E2,5.63E2,1.39E2,3.048E3,1.165E3,3.23E2,6.4E1,1.3E1,2.9E1,2.75E2,2.05E2,3.237E3,5.24E2,1.12E2,1.409E3,5.13E2,7.3E1,2.24E2,3.39E2,1.27E2,1.2E1,2.762E3,2.86E2,4.38E2,7.27E2,2.66E2,5.7E1,2.4E1,4E1,7E0,6E0,7E0,2.2E1,2.05E2,7E1,1.63E2,4.2E1,3.24E2,2.913E3,2.15E2,3.09E2,4.7E1,6.5E1,1.337E3,7.2E1,5.1E1,4.62E2,5.4E1,1.9E1,2.21E2,3E0,3.23E2,1.6E1,7.6E1,5.1E1,5E0,7E0,1.423E3,1.339E3,1.7E1,2.69E2,1.15E2,3.23E2,2.51E2,4.76E2,3.6E1,2.3E2,1.8E1,3.9E1,1.1E1,1.3E1,6E0,3.4E1,3E0,4E0,3E0,3E0,3E0,4E0,1.9E1,3E0,9.5E1,1.1E2,1.3E1,5.7E1,1.06E2,5.7E1,3.8E1,4E0,6.8E1,2.56E2,5.51E2,2.362E3,1.99E2,1.6E1,2.34E2,7.5E1,1.9E1,2.8E1,2.5E1,4E1,1.47E2,1.19E3,2.7E1,4.5E1,3.7E1,1.4E1,3.8E1,4.24E2,3.3E1,2.1E1,1.6E1,3E0],"tree_param":{"num_deleted":"0","num_feature":"128","num_nodes":"127","size_leaf_vector":"1"}},{"base_weights":[-2.6041314E-2,-2.6169505E0,2.9861002E0,-3.3298247E0,3.4232523E0,-3.8779325E0,4.138145E0,-7.8923736E0,-2.601471E0,-2.4960368E0,4.7947383E0,-5.6765842E0,-7.197295E-1,6.496331E0,1.5886701E0,-8.514816E0,-1.123966E0,-1.7067579E0,-5.4911294E0,8.113304E0,-3.2908063E0,3.109881E0,9.5046215E0,-6.010106E0,8.192936E0,-1.7147297E0,6.588352E0,5.777242E0,1.1673196E1,2.2711152E-1,6.6462326E0,-1.0621705E1,-7.1017566E0,-5.325376E0,4.7681394E0,-3.2691157E0,-1.20429344E-1,-6.047771E0,3.8164692E0,2.3761073E-1,1.0585885E0,9.327059E-1,-3.937381E0,5.699704E0,1.1047732E0,1.330079E1,6.082888E0,-8.593668E0,-4.1630306E0,1.932761E0,1.6570629E0,6.686727E0,-2.3591757E0,-1.5225924E0,1.0031353E1,6.3128085E0,-2.4036865E0,2.2965126E0,1.4359867E1,-5.0518947E0,9.791352E-1,1.3584815E0,1.0166582E1,-1.1353091E0,-6.063525E-1,-9.513262E-1,-5.4084885E-1,-6.3125944E-1,2.650229E-1,1.329353E-1,1.4894592E0,-1.916415E-1,-5.328645E-1,2.1527217E-1,-1.3853346E-1,-8.6405367E-1,-4.8243934E-1,1.9714543E-1,1.6715769E0,2.802909E-1,-5.0085896E-1,3.9634094E-1,1.0550423E0,-9.064382E-1,1.822463E-1,1.476456E0,8.4288314E-2,1.3447347E-1,8.9778185E-1,-1.163208E0,-6.9755805E-1,-5.3638226E-1,5.8769275E-2,-2.6782122E-1,5.234987E-1,-2.253706E-1,1.0298718E0,-7.2566044E-1,-1.4226244E-1,-8.0625886E-1,5.2711695E-1,1.3453803E0,1.5047291E-1,9.403121E-1,5.357608E-1,-5.975658E-1,2.1335144E-1,-1.5107243E-2,1.4548172E0,6.454165E-2,1.5401706E0,-7.304813E-1,-1.8869759E-1,3.117981E-2,6.0785437E-1,-1.4083146E-1,6.190711E-1,9.0287095E-1,1.7457126E0],"categories":[],"categories_nodes":[],"categories_segments":[],"categories_sizes":[],"default_left":[0,0,0,0,0,0,0,0,0,0,0,0,0,0,0,0,0,0,0,0,0,0,0,0,0,0,0,0,0,0,0,0,0,0,0,0,0,0,0,0,0,0,0,0,0,0,0,0,0,0,0,0,0,0,0,0,0,0,0,0,0,0,0,0,0,0,0,0,0,0,0,0,0,0,0,0,0,0,0,0,0,0,0,0,0,0,0,0,0,0,0,0,0,0,0,0,0,0,0,0,0,0,0,0,0,0,0,0,0,0,0,0,0,0,0,0,0,0,0],"id":4,"left_children":[1,3,5,7,9,11,13,15,17,19,21,23,25,27,29,31,33,35,37,39,41,43,45,47,49,51,53,55,57,59,61,63,65,67,69,71,73,75,77,-1,-1,-1,79,81,83,85,87,89,91,93,-1,95,97,99,101,103,105,107,109,111,113,115,117,-1,-1,-1,-1,-1,-1,-1,-1,-1,-1,-1,-1,-1,-1,-1,-1,-1,-1,-1,-1,-1,-1,-1,-1,-1,-1,-1,-1,-1,-1,-1,-1,-1,-1,-1,-1,-1,-1,-1,-1,-1,-1,-1,-1,-1,-1,-1,-1,-1,-1,-1,-1,-1,-1,-1,-1],"loss_changes":[9.083292E4,2.6953445E4,4.2575145E4,1.857914E4,5.378113E3,4.392626E3,2.769961E4,3.2344023E3,1.2473014E4,1.0806968E3,4.231795E3,2.3297559E3,2.0618723E3,8.844539E3,1.5258236E4,2.0234648E3,1.659232E3,9.13999E3,5.9345938E3,1.02517944E2,9.912565E2,2.0552742E3,1.7506094E3,2.2643438E3,5.973228E2,1.3639324E3,9.6475745E2,9.233703E3,7.297914E3,6.9404272E3,8.735115E3,8.679531E2,1.6839609E3,3.2380273E2,9.552356E2,5.166041E3,5.2676943E3,3.3744883E3,1.5140063E3,0E0,0E0,0E0,8.227074E2,1.4152383E3,1.6586367E3,1.1910986E3,1.0303906E3,9.0214355E2,1.6175625E3,1.3583223E2,0E0,6.0447974E2,1.0537892E3,5.312422E2,6.801223E2,5.7795625E3,2.1196274E3,1.9813386E3,3.2191992E3,1.5406221E3,5.2047324E3,2.5356096E3,2.1817754E3,0E0,0E0,0E0,0E0,0E0,0E0,0E0,0E0,0E0,0E0,0E0,0E0,0E0,0E0,0E0,0E0,0E0,0E0,0E0,0E0,0E0,0E0,0E0,0E0,0E0,0E0,0E0,0E0,0E0,0E0,0E0,0E0,0E0,0E0,0E0,0E0,0E0,0E0,0E0,0E0,0E0,0E0,0E0,0E0,0E0,0E0,0E0,0E0,0E0,0E0,0E0,0E0,0E0,0E0,0E0,0E0],"parents":[2147483647,0,0,1,1,2,2,3,3,4,4,5,5,6,6,7,7,8,8,9,9,10,10,11,11,12,12,13,13,14,14,15,15,16,16,17,17,18,18,19,19,20,20,21,21,22,22,23,23,24,24,25,25,26,26,27,27,28,28,29,29,30,30,31,31,32,32,33,33,34,34,35,35,36,36,37,37,38,38,42,42,43,43,44,44,45,45,46,46,47,47,48,48,49,49,51,51,52,52,53,53,54,54,55,55,56,56,57,57,58,58,59,59,60,60,61,61,62,62],"right_children":[2,4,6,8,10,12,14,16,18,20,22,24,26,28,30,32,34,36,38,40,42,44,46,48,50,52,54,56,58,60,62,64,66,68,70,72,74,76,78,-1,-1,-1,80,82,84,86,88,90,92,94,-1,96,98,100,102,104,106,108,110,112,114,116,118,-1,-1,-1,-1,-1,-1,-1,-1,-1,-1,-1,-1,-1,-1,-1,-1,-1,-1,-1,-1,-1,-1,-1,-1,-1,-1,-1,-1,-1,-1,-1,-1,-1,-1,-1,-1,-1,-1,-1,-1,-1,-1,-1,-1,-1,-1,-1,-1,-1,-1,-1,-1,-1,-1,-1,-1],"split_conditions":[2.72E1,-2E0,-9.5E0,-2.05E1,3.959276E-1,-1.45E1,1.6E0,4.1463414E-1,7.5E-1,4.0262172E-1,2.91E1,7.55E1,6.75E1,4.42E1,3.46E1,-3.25E1,2.9E1,1.7E1,4.2519686E-1,5.851519E-2,1.3756613E-1,1.228E3,-4.19E0,2.9180327E-1,1.9109462E-1,-1.28E1,3.1501833E-1,1.554E3,2E0,2.57E1,2.18E1,1E0,2.47E1,1.7364017E0,3.82E1,2E-1,-9.333333E0,-1.3E1,1.908487E-1,2.3761073E-1,1.0585885E0,9.327059E-1,-1.5E0,5.65E1,1.78E1,8.8E1,3.904762E-1,-3.6286507E-2,1.7449208E-1,2.6794976E-2,1.6570629E0,5.9398547E-2,9.592326E-1,6.923077E-1,4.7151276E-1,-1.8E1,3.0154067E-1,3.53E1,3.0860534E-1,3.07E1,4.46E1,4.83965E-1,1.5E1,-1.1353091E0,-6.063525E-1,-9.513262E-1,-5.4084885E-1,-6.3125944E-1,2.650229E-1,1.329353E-1,1.4894592E0,-1.916415E-1,-5.328645E-1,2.1527217E-1,-1.3853346E-1,-8.6405367E-1,-4.8243934E-1,1.9714543E-1,1.6715769E0,2.802909E-1,-5.0085896E-1,3.9634094E-1,1.0550423E0,-9.064382E-1,1.822463E-1,1.476456E0,8.4288314E-2,1.3447347E-1,8.9778185E-1,-1.163208E0,-6.9755805E-1,-5.3638226E-1,5.8769275E-2,-2.6782122E-1,5.234987E-1,-2.253706E-1,1.0298718E0,-7.2566044E-1,-1.4226244E-1,-8.0625886E-1,5.2711695E-1,1.3453803E0,1.5047291E-1,9.403121E-1,5.357608E-1,-5.975658E-1,2.1335144E-1,-1.5107243E-2,1.4548172E0,6.454165E-2,1.5401706E0,-7.304813E-1,-1.8869759E-1,3.117981E-2,6.0785437E-1,-1.4083146E-1,6.190711E-1,9.0287095E-1,1.7457126E0],"split_indices":[106,110,110,110,41,110,101,75,98,35,119,111,111,106,119,110,55,106,75,4,8,52,53,37,80,50,37,52,96,48,48,3,48,32,99,98,101,108,23,0,0,0,49,111,119,123,22,34,57,38,0,34,66,7,39,101,74,119,37,119,106,58,110,0,0,0,0,0,0,0,0,0,0,0,0,0,0,0,0,0,0,0,0,0,0,0,0,0,0,0,0,0,0,0,0,0,0,0,0,0,0,0,0,0,0,0,0,0,0,0,0,0,0,0,0,0,0,0,0],"split_type":[0,0,0,0,0,0,0,0,0,0,0,0,0,0,0,0,0,0,0,0,0,0,0,0,0,0,0,0,0,0,0,0,0,0,0,0,0,0,0,0,0,0,0,0,0,0,0,0,0,0,0,0,0,0,0,0,0,0,0,0,0,0,0,0,0,0,0,0,0,0,0,0,0,0,0,0,0,0,0,0,0,0,0,0,0,0,0,0,0,0,0,0,0,0,0,0,0,0,0,0,0,0,0,0,0,0,0,0,0,0,0,0,0,0,0,0,0,0,0],"sum_hessian":[1.1637E4,6.256E3,5.381E3,5.596E3,6.6E2,7.73E2,4.608E3,7.69E2,4.827E3,1.24E2,5.36E2,4.92E2,2.81E2,2.393E3,2.215E3,7.04E2,6.5E1,3.687E3,1.14E3,8E0,1.16E2,3.96E2,1.4E2,4.81E2,1.1E1,2.48E2,3.3E1,2.103E3,2.9E2,1.746E3,4.69E2,2.8E2,4.24E2,3.8E1,2.7E1,1.857E3,1.83E3,1.076E3,6.4E1,3E0,5E0,5E0,1.11E2,1.72E2,2.24E2,6.5E1,7.5E1,1.99E2,2.82E2,7E0,4E0,1.7E1,2.31E2,1E1,2.3E1,1.974E3,1.29E2,6.5E1,2.25E2,2.17E2,1.529E3,1.88E2,2.81E2,2.4E2,4E1,1.73E2,2.51E2,3.4E1,4E0,2.1E1,6E0,1.122E3,7.35E2,6.54E2,1.176E3,3.43E2,7.33E2,5.7E1,7E0,1.5E1,9.6E1,1.28E2,4.4E1,1.4E1,2.1E2,5.8E1,7E0,2.9E1,4.6E1,6.7E1,1.32E2,2.25E2,5.7E1,3E0,4E0,5E0,1.2E1,3.6E1,1.95E2,5E0,5E0,1.6E1,7E0,4.64E2,1.51E3,7.2E1,5.7E1,5.5E1,1E1,1.6E1,2.09E2,1.26E2,9.1E1,1.353E3,1.76E2,1.2E2,6.8E1,2.45E2,3.6E1],"tree_param":{"num_deleted":"0","num_feature":"128","num_nodes":"119","size_leaf_vector":"1"}},{"base_weights":[-7.38085E-2,-2.7262135E0,2.2004735E0,-3.2301576E0,4.335158E0,-1.2863621E-1,5.078091E0,-6.808615E0,-2.5723727E0,3.381762E0,1.1307208E1,-5.5654564E0,7.027298E-1,2.5062184E0,7.3176584E0,-8.14819E0,-2.7757313E0,-1.7978702E0,-5.047947E0,1.6613424E-2,5.0094776E0,1.814938E0,1.4513459E1,-6.7850943E0,-2.488271E0,7.2149515E-2,5.983372E0,-3.321076E0,3.4443917E0,1.3050753E1,6.0237536E0,-8.551595E0,-7.7323385E-2,-5.605144E0,1.9897416E-1,-2.9264214E0,-2.1006343E-1,-5.634662E0,1.1330237E0,2.8532436E0,-3.0428233E0,2.9561117E0,7.385582E0,5.0350366E0,-5.8840185E-1,3.458111E-1,1.553787E1,-7.716596E0,-2.3599238E0,-7.245581E0,-1.0920445E0,-8.2532686E-1,3.4442627E0,1.3019421E0,9.129922E0,1.1466095E1,-4.425825E0,2.4896433E0,9.157515E0,1.0991112E1,2.0807415E1,5.268846E0,1.4524164E1,-9.8165864E-1,-6.7603654E-1,-7.799446E-1,5.0750536E-1,-6.1416894E-1,8.941499E-1,9.5429844E-1,-1.10715486E-1,-1.7144142E-1,-4.913752E-1,-2.1258803E-1,1.2741539E-1,-6.141271E-1,-1.4206715E-1,-4.6156263E-1,3.5787466E-1,-3.6445102E-1,5.1608795E-1,-8.754988E-1,-8.5826725E-2,6.851299E-1,2.4289606E-2,8.15648E-1,-3.911433E-1,1.9385596E-1,8.420993E-1,1.703863E0,6.945192E-1,-3.2591888E-1,-8.5588086E-1,-5.902181E-1,2.3768649E-2,-1.0262994E0,-2.5102744E-1,2.6381924E-3,-8.2838124E-1,-4.0027142E-1,2.2706596E-2,7.2956526E-1,2.5053772E-1,1.0113516E0,-6.682405E-2,4.1269445E-1,1.0712203E0,2.520202E-1,1.5162024E0,7.8229606E-1,-5.2352095E-1,-6.0643613E-1,3.0087444E-1,1.7722057E0,7.0767695E-1,6.6332084E-1,1.3416637E0,2.2399662E0,3.5400638E-1,4.963338E-2,6.2840694E-1,2.9277802E-4,1.6137602E0],"categories":[],"categories_nodes":[],"categories_segments":[],"categories_sizes":[],"default_left":[0,0,0,0,0,0,0,0,0,0,0,0,0,0,0,0,0,0,0,0,0,0,0,0,0,0,0,0,0,0,0,0,0,0,0,0,0,0,0,0,0,0,0,0,0,0,0,0,0,0,0,0,0,0,0,0,0,0,0,0,0,0,0,0,0,0,0,0,0,0,0,0,0,0,0,0,0,0,0,0,0,0,0,0,0,0,0,0,0,0,0,0,0,0,0,0,0,0,0,0,0,0,0,0,0,0,0,0,0,0,0,0,0,0,0,0,0,0,0,0,0,0,0],"id":5,"left_children":[1,3,5,7,9,11,13,15,17,19,21,23,25,27,29,31,33,35,37,39,41,43,45,47,49,51,53,55,57,59,61,63,65,67,69,71,73,75,77,79,81,83,85,87,-1,-1,89,91,93,95,97,99,101,103,105,107,109,111,113,115,117,119,121,-1,-1,-1,-1,-1,-1,-1,-1,-1,-1,-1,-1,-1,-1,-1,-1,-1,-1,-1,-1,-1,-1,-1,-1,-1,-1,-1,-1,-1,-1,-1,-1,-1,-1,-1,-1,-1,-1,-1,-1,-1,-1,-1,-1,-1,-1,-1,-1,-1,-1,-1,-1,-1,-1,-1,-1,-1,-1,-1,-1],"loss_changes":[7.073492E4,1.9276355E4,4.23122E4,1.1876516E4,2.361374E3,1.5778667E4,1.62475625E4,4.212824E3,8.177961E3,1.7472407E3,1.2823467E3,1.7207803E3,1.0082412E4,7.2060283E3,1.1115266E4,1.9137656E3,1.6591995E3,5.830297E3,3.694504E3,9.199234E2,1.0271548E3,3.2712305E2,3.0867578E2,1.3461895E3,8.7551117E2,8.19226E3,4.7460156E3,3.0402563E3,6.162712E3,4.1966367E3,7.83566E3,1.2025352E3,1.1934141E3,8.432136E2,1.1944004E3,4.5728467E3,3.8499482E3,1.9745469E3,1.267823E3,8.435035E2,6.2889166E2,1.2348481E3,8.940796E2,7.8036224E1,0E0,0E0,2.556333E2,9.969697E2,5.4428577E2,4.0288818E2,8.367387E2,7.1500806E3,2.0392339E3,2.280972E3,1.4836025E3,3.916128E2,1.7362434E3,4.3387466E3,2.7615273E3,2.2470215E3,1.4878516E3,5.491299E3,2.3428652E3,0E0,0E0,0E0,0E0,0E0,0E0,0E0,0E0,0E0,0E0,0E0,0E0,0E0,0E0,0E0,0E0,0E0,0E0,0E0,0E0,0E0,0E0,0E0,0E0,0E0,0E0,0E0,0E0,0E0,0E0,0E0,0E0,0E0,0E0,0E0,0E0,0E0,0E0,0E0,0E0,0E0,0E0,0E0,0E0,0E0,0E0,0E0,0E0,0E0,0E0,0E0,0E0,0E0,0E0,0E0,0E0,0E0,0E0,0E0,0E0],"parents":[2147483647,0,0,1,1,2,2,3,3,4,4,5,5,6,6,7,7,8,8,9,9,10,10,11,11,12,12,13,13,14,14,15,15,16,16,17,17,18,18,19,19,20,20,21,21,22,22,23,23,24,24,25,25,26,26,27,27,28,28,29,29,30,30,31,31,32,32,33,33,34,34,35,35,36,36,37,37,38,38,39,39,40,40,41,41,42,42,43,43,46,46,47,47,48,48,49,49,50,50,51,51,52,52,53,53,54,54,55,55,56,56,57,57,58,58,59,59,60,60,61,61,62,62],"right_children":[2,4,6,8,10,12,14,16,18,20,22,24,26,28,30,32,34,36,38,40,42,44,46,48,50,52,54,56,58,60,62,64,66,68,70,72,74,76,78,80,82,84,86,88,-1,-1,90,92,94,96,98,100,102,104,106,108,110,112,114,116,118,120,122,-1,-1,-1,-1,-1,-1,-1,-1,-1,-1,-1,-1,-1,-1,-1,-1,-1,-1,-1,-1,-1,-1,-1,-1,-1,-1,-1,-1,-1,-1,-1,-1,-1,-1,-1,-1,-1,-1,-1,-1,-1,-1,-1,-1,-1,-1,-1,-1,-1,-1,-1,-1,-1,-1,-1,-1,-1,-1,-1,-1],"split_conditions":[2.48E1,3E0,2.72E1,2.57E1,2.4182889E-1,-1.45E1,3E0,-1.1597834E0,6.666667E-1,2.5222903E-1,1.278E3,2.034802E-1,2.83E1,7.459223E-2,-1.88E1,4.3286574E-1,1.95E1,1.7E1,1.3275862E0,6.9512194E-1,8E0,4.2558748E-1,4.0848213E-1,4.4721234E-1,1.039604E0,4.08E1,2.91E1,2.5E1,3.08E1,3.92E1,4.58E1,1E0,2.1E1,5.92E1,6.415094E-1,1.75E1,2.86E1,7.05E1,-1.1990601E1,1.92E1,5.6934133E-2,3.9256197E-1,1.62E2,2.0232339E-1,-5.8840185E-1,3.458111E-1,5.555556E-1,1.4818859E-1,1.52E1,7.307692E-1,1.31E2,1.58E1,2.24E1,-1.4023E1,1.3246E2,3.7908497E-1,-1.91E1,6E1,6.557377E-1,3.9E1,1.53E2,2.8718603E-1,1E0,-9.8165864E-1,-6.7603654E-1,-7.799446E-1,5.0750536E-1,-6.1416894E-1,8.941499E-1,9.5429844E-1,-1.10715486E-1,-1.7144142E-1,-4.913752E-1,-2.1258803E-1,1.2741539E-1,-6.141271E-1,-1.4206715E-1,-4.6156263E-1,3.5787466E-1,-3.6445102E-1,5.1608795E-1,-8.754988E-1,-8.5826725E-2,6.851299E-1,2.4289606E-2,8.15648E-1,-3.911433E-1,1.9385596E-1,8.420993E-1,1.703863E0,6.945192E-1,-3.2591888E-1,-8.5588086E-1,-5.902181E-1,2.3768649E-2,-1.0262994E0,-2.5102744E-1,2.6381924E-3,-8.2838124E-1,-4.0027142E-1,2.2706596E-2,7.2956526E-1,2.5053772E-1,1.0113516E0,-6.682405E-2,4.1269445E-1,1.0712203E0,2.520202E-1,1.5162024E0,7.8229606E-1,-5.2352095E-1,-6.0643613E-1,3.0087444E-1,1.7722057E0,7.0767695E-1,6.6332084E-1,1.3416637E0,2.2399662E0,3.5400638E-1,4.963338E-2,6.2840694E-1,2.9277802E-4,1.6137602E0],"split_indices":[106,110,100,48,38,110,104,122,98,70,95,40,48,34,101,75,48,106,32,7,110,20,41,58,32,106,119,123,119,106,106,3,51,109,7,99,100,102,122,119,34,94,123,70,0,0,39,93,48,79,123,100,99,53,127,39,50,51,7,100,55,36,3,0,0,0,0,0,0,0,0,0,0,0,0,0,0,0,0,0,0,0,0,0,0,0,0,0,0,0,0,0,0,0,0,0,0,0,0,0,0,0,0,0,0,0,0,0,0,0,0,0,0,0,0,0,0,0,0,0,0,0,0],"split_type":[0,0,0,0,0,0,0,0,0,0,0,0,0,0,0,0,0,0,0,0,0,0,0,0,0,0,0,0,0,0,0,0,0,0,0,0,0,0,0,0,0,0,0,0,0,0,0,0,0,0,0,0,0,0,0,0,0,0,0,0,0,0,0,0,0,0,0,0,0,0,0,0,0,0,0,0,0,0,0,0,0,0,0,0,0,0,0,0,0,0,0,0,0,0,0,0,0,0,0,0,0,0,0,0,0,0,0,0,0,0,0,0,0,0,0,0,0,0,0,0,0,0,0],"sum_hessian":[1.1724E4,5.412E3,6.312E3,5.052E3,3.6E2,3.489E3,2.823E3,7.83E2,4.269E3,3.18E2,4.2E1,4.62E2,3.027E3,1.315E3,1.508E3,5.87E2,1.96E2,3.253E3,1.016E3,1.04E2,2.14E2,1.1E1,3.1E1,3.3E2,1.32E2,2.705E3,3.22E2,1.82E2,1.133E3,2.76E2,1.232E3,5.59E2,2.8E1,1E2,9.6E1,1.901E3,1.352E3,9.28E2,8.8E1,5.4E1,5E1,1.16E2,9.8E1,8E0,3E0,3E0,2.8E1,2.72E2,5.8E1,2.9E1,1.03E2,2.137E3,5.68E2,1.3E2,1.92E2,1.2E1,1.7E2,9.72E2,1.61E2,2.2E2,5.6E1,1.133E3,9.9E1,3.25E2,2.34E2,1.1E1,1.7E1,9.7E1,3E0,1.1E1,8.5E1,1.182E3,7.19E2,5.9E2,7.62E2,8.28E2,1E2,2.6E1,6.2E1,1.4E1,4E1,1.3E1,3.7E1,4.7E1,6.9E1,9.2E1,6E0,5E0,3E0,2.3E1,5E0,4.4E1,2.28E2,2.4E1,3.4E1,1.7E1,1.2E1,9E1,1.3E1,5.31E2,1.606E3,1.1E2,4.58E2,2.3E1,1.07E2,4.7E1,1.45E2,4E0,8E0,1E1,1.6E2,5.5E1,9.17E2,3E1,1.31E2,8E1,1.4E2,5.1E1,5E0,1.99E2,9.34E2,1E1,8.9E1],"tree_param":{"num_deleted":"0","num_feature":"128","num_nodes":"123","size_leaf_vector":"1"}},{"base_weights":[-7.872693E-2,-2.1206355E0,2.4135315E0,-2.78952E0,2.6123736E0,4.951706E0,1.425303E-1,-6.125795E0,-2.1612983E0,2.1333778E-3,4.5556755E0,-2.1114297E0,5.6457844E0,-9.8290455E-1,5.014803E0,-8.898566E0,-4.798322E0,-1.0108403E0,-4.2977486E0,-8.9892614E-1,4.992576E0,2.6686678E0,7.6339755E0,-2.9704688E0,7.7893724E0,4.3673577E0,8.17484E0,-4.415102E0,-4.5587428E-2,9.511351E-1,6.9742565E0,-9.543521E0,-3.285439E0,-5.1510715E0,5.7242265E0,-2.3215299E0,1.0716311E0,-4.848294E0,1.3222991E0,7.414931E0,-1.480646E0,9.155676E-1,9.359122E0,-7.043478E0,3.3943276E0,1.0340096E1,5.67546E0,9.286664E0,-3.450704E0,-2.8686017E-1,1.1039408E1,3.833699E0,9.953601E0,6.891228E0,1.3437048E1,-6.0998034E0,-2.5604674E-1,-6.638742E-1,3.5873253E0,-1.7512261E0,7.660052E0,9.979799E0,4.898844E0,-1.0188037E0,-5.577928E-1,1.5503518E-1,-7.3590523E-1,-5.432276E-1,3.977437E-1,-5.1636726E-1,8.7689304E-1,-6.2880504E-1,-1.867175E-1,-6.43604E-1,1.4357781E-1,-2.6569977E-1,-5.4841983E-1,-3.104557E-1,5.228092E-1,2.3945092E-1,2.0993211E0,-7.2950624E-2,-8.812637E-1,-7.194322E-1,2.9913837E-1,1.1463187E-1,1.1892307E0,-1.3145508E0,-1.8799987E-1,-6.8646145E-1,3.8675016E-1,-5.302438E-1,1.135312E0,6.359557E-1,-2.1001554E-1,3.1808978E-1,1.2313944E0,-7.071544E-1,-2.0784557E-1,4.29584E-1,1.5560105E0,8.423873E-1,3.1976506E-1,-5.8584553E-1,1.1320094E0,7.618653E-1,-1.9690154E-1,5.39174E-1,1.5718657E0,-6.354839E-1,3.028379E-1,1.4929527E0,-1.04741216E-1,-3.6898727E-4,-4.6619827E-1,1.1234138E0,2.3710667E-1,3.015925E-1,-3.5527083E-1,3.2580054E-1,1.7420825E0,1.3408374E0,5.9417194E-1,6.0124385E-1,-1.6892938E-1],"categories":[],"categories_nodes":[],"categories_segments":[],"categories_sizes":[],"default_left":[0,0,0,0,0,0,0,0,0,0,0,0,0,0,0,0,0,0,0,0,0,0,0,0,0,0,0,0,0,0,0,0,0,0,0,0,0,0,0,0,0,0,0,0,0,0,0,0,0,0,0,0,0,0,0,0,0,0,0,0,0,0,0,0,0,0,0,0,0,0,0,0,0,0,0,0,0,0,0,0,0,0,0,0,0,0,0,0,0,0,0,0,0,0,0,0,0,0,0,0,0,0,0,0,0,0,0,0,0,0,0,0,0,0,0,0,0,0,0,0,0,0,0,0,0],"id":6,"left_children":[1,3,5,7,9,11,13,15,17,19,21,23,25,27,29,31,33,35,37,39,41,43,45,47,49,51,53,55,57,59,61,63,65,67,69,71,73,75,77,79,81,83,85,87,89,91,93,95,97,-1,99,101,103,105,107,109,111,113,115,117,119,121,123,-1,-1,-1,-1,-1,-1,-1,-1,-1,-1,-1,-1,-1,-1,-1,-1,-1,-1,-1,-1,-1,-1,-1,-1,-1,-1,-1,-1,-1,-1,-1,-1,-1,-1,-1,-1,-1,-1,-1,-1,-1,-1,-1,-1,-1,-1,-1,-1,-1,-1,-1,-1,-1,-1,-1,-1,-1,-1,-1,-1,-1,-1],"loss_changes":[5.9179594E4,2.0243316E4,3.0186393E4,1.1726008E4,4.017398E3,1.2135484E4,1.5166601E4,3.2221484E3,1.1584637E4,1.5288645E3,2.6168125E3,1.911287E3,7.2454844E3,7.228526E3,4.1259395E3,1.0040254E3,2.264001E3,8.371053E3,5.11166E3,1.4038436E3,9.171581E2,2.0184114E3,8.5291113E2,1.2387388E3,6.55166E2,4.4275996E3,5.0071484E3,3.3757002E3,3.969139E3,3.0955E3,2.1343203E3,5.974785E2,6.2208246E2,1.5181572E3,7.082887E2,3.3800146E3,3.248908E3,2.079789E3,2.5752073E3,1.2449365E3,1.4805553E3,4.9289084E2,5.0648145E2,6.054406E2,1.3080747E3,1.1852837E3,5.559219E2,1.0870154E2,9.6910254E2,0E0,3.5995483E2,3.969961E3,2.8752344E3,3.9401035E3,2.6136172E3,8.177539E2,1.6980647E3,3.98561E3,2.3635925E3,1.058443E3,2.0486436E3,1.8863008E3,1.5434888E3,0E0,0E0,0E0,0E0,0E0,0E0,0E0,0E0,0E0,0E0,0E0,0E0,0E0,0E0,0E0,0E0,0E0,0E0,0E0,0E0,0E0,0E0,0E0,0E0,0E0,0E0,0E0,0E0,0E0,0E0,0E0,0E0,0E0,0E0,0E0,0E0,0E0,0E0,0E0,0E0,0E0,0E0,0E0,0E0,0E0,0E0,0E0,0E0,0E0,0E0,0E0,0E0,0E0,0E0,0E0,0E0,0E0,0E0,0E0,0E0,0E0,0E0],"parents":[2147483647,0,0,1,1,2,2,3,3,4,4,5,5,6,6,7,7,8,8,9,9,10,10,11,11,12,12,13,13,14,14,15,15,16,16,17,17,18,18,19,19,20,20,21,21,22,22,23,23,24,24,25,25,26,26,27,27,28,28,29,29,30,30,31,31,32,32,33,33,34,34,35,35,36,36,37,37,38,38,39,39,40,40,41,41,42,42,43,43,44,44,45,45,46,46,47,47,48,48,50,50,51,51,52,52,53,53,54,54,55,55,56,56,57,57,58,58,59,59,60,60,61,61,62,62],"right_children":[2,4,6,8,10,12,14,16,18,20,22,24,26,28,30,32,34,36,38,40,42,44,46,48,50,52,54,56,58,60,62,64,66,68,70,72,74,76,78,80,82,84,86,88,90,92,94,96,98,-1,100,102,104,106,108,110,112,114,116,118,120,122,124,-1,-1,-1,-1,-1,-1,-1,-1,-1,-1,-1,-1,-1,-1,-1,-1,-1,-1,-1,-1,-1,-1,-1,-1,-1,-1,-1,-1,-1,-1,-1,-1,-1,-1,-1,-1,-1,-1,-1,-1,-1,-1,-1,-1,-1,-1,-1,-1,-1,-1,-1,-1,-1,-1,-1,-1,-1,-1,-1,-1,-1,-1],"split_conditions":[2.76E1,-3E0,1.4E0,3.1095406E-1,5.05E1,-6.5E0,-1E0,3.9E1,3E0,2.3358822E-1,6.5E0,3.67E1,4E0,2.23E1,4.023845E-1,4.2993632E-1,3.48E1,1.85E1,2.76E1,1.5E1,4.1255605E-1,1.78E1,1.173E3,3.2E1,3.1501833E-1,3.56E1,4.35E1,3.5E1,2.88E1,3.99E1,2.1E1,1.54E1,1.705E3,1.8914894E0,4.1755635E-1,-3.375E1,-1.65E1,2.02E1,1.7260909E-1,1.206089E0,1.2379397E-1,2.5311205E-1,1.9131212E-1,1E0,2.762763E-1,8.9702517E-1,6.175E1,1.1537704E0,-2.45E1,-2.8686017E-1,6.42E1,-2.64E1,4.3100512E-1,1.55E3,4.7E1,4.1449898E-1,5E0,2.7E1,-1.8165971E0,4E0,2.13E1,6.8717804E0,6.493377E0,-1.0188037E0,-5.577928E-1,1.5503518E-1,-7.3590523E-1,-5.432276E-1,3.977437E-1,-5.1636726E-1,8.7689304E-1,-6.2880504E-1,-1.867175E-1,-6.43604E-1,1.4357781E-1,-2.6569977E-1,-5.4841983E-1,-3.104557E-1,5.228092E-1,2.3945092E-1,2.0993211E0,-7.2950624E-2,-8.812637E-1,-7.194322E-1,2.9913837E-1,1.1463187E-1,1.1892307E0,-1.3145508E0,-1.8799987E-1,-6.8646145E-1,3.8675016E-1,-5.302438E-1,1.135312E0,6.359557E-1,-2.1001554E-1,3.1808978E-1,1.2313944E0,-7.071544E-1,-2.0784557E-1,4.29584E-1,1.5560105E0,8.423873E-1,3.1976506E-1,-5.8584553E-1,1.1320094E0,7.618653E-1,-1.9690154E-1,5.39174E-1,1.5718657E0,-6.354839E-1,3.028379E-1,1.4929527E0,-1.04741216E-1,-3.6898727E-4,-4.6619827E-1,1.1234138E0,2.3710667E-1,3.015925E-1,-3.5527083E-1,3.2580054E-1,1.7420825E0,1.3408374E0,5.9417194E-1,6.0124385E-1,-1.6892938E-1],"split_indices":[106,110,101,37,111,110,110,109,101,23,110,48,104,48,24,75,48,106,48,123,58,119,52,123,37,119,106,119,119,119,123,101,52,32,24,108,110,107,74,11,15,18,74,104,37,64,109,6,110,0,109,101,35,52,102,74,123,101,50,96,48,50,50,0,0,0,0,0,0,0,0,0,0,0,0,0,0,0,0,0,0,0,0,0,0,0,0,0,0,0,0,0,0,0,0,0,0,0,0,0,0,0,0,0,0,0,0,0,0,0,0,0,0,0,0,0,0,0,0,0,0,0,0,0,0],"split_type":[0,0,0,0,0,0,0,0,0,0,0,0,0,0,0,0,0,0,0,0,0,0,0,0,0,0,0,0,0,0,0,0,0,0,0,0,0,0,0,0,0,0,0,0,0,0,0,0,0,0,0,0,0,0,0,0,0,0,0,0,0,0,0,0,0,0,0,0,0,0,0,0,0,0,0,0,0,0,0,0,0,0,0,0,0,0,0,0,0,0,0,0,0,0,0,0,0,0,0,0,0,0,0,0,0,0,0,0,0,0,0,0,0,0,0,0,0,0,0,0,0,0,0,0,0],"sum_hessian":[1.1627E4,6.391E3,5.236E3,5.6E3,7.91E2,2.472E3,2.764E3,8.86E2,4.714E3,3.38E2,4.53E2,2.21E2,2.251E3,2.246E3,5.18E2,2.85E2,6.01E2,3.065E3,1.649E3,2.87E2,5.1E1,2.82E2,1.71E2,2.04E2,1.7E1,1.497E3,7.54E2,4.81E2,1.765E3,1.69E2,3.49E2,2.55E2,3E1,5.82E2,1.9E1,1.881E3,1.184E3,1.502E3,1.47E2,1.8E1,2.69E2,2.7E1,2.4E1,1.9E1,2.63E2,7E1,1.01E2,7E0,1.97E2,4E0,1.3E1,1.368E3,1.29E2,6.08E2,1.46E2,3.42E2,1.39E2,1.509E3,2.56E2,1.21E2,4.8E1,1.41E2,2.08E2,2.18E2,3.7E1,1.4E1,1.6E1,5.65E2,1.7E1,4E0,1.5E1,1.92E2,1.689E3,5.4E1,1.13E3,3.39E2,1.163E3,6.9E1,7.8E1,1.4E1,4E0,2.45E2,2.4E1,5E0,2.2E1,6E0,1.8E1,8E0,1.1E1,1.1E1,2.52E2,4E0,6.6E1,9.3E1,8E0,3E0,4E0,5.3E1,1.44E2,6E0,7E0,1.65E2,1.203E3,1E1,1.19E2,5.62E2,4.6E1,3.3E1,1.13E2,3.33E2,9E0,6E0,1.33E2,1.296E3,2.13E2,3.4E1,2.22E2,3.3E1,8.8E1,3.4E1,1.4E1,7.5E1,6.6E1,1.78E2,3E1],"tree_param":{"num_deleted":"0","num_feature":"128","num_nodes":"125","size_leaf_vector":"1"}},{"base_weights":[-3.0851308E-2,-8.39946E-1,4.491086E0,-2.8337724E0,6.0224056E-1,2.504666E0,6.6277385E0,-7.926945E0,-2.4199355E0,-1.8902185E0,2.1903667E0,5.4572546E-1,4.5009913E0,5.318566E0,1.0342589E1,-9.426603E0,-5.262954E0,-6.0011415E0,-1.8216144E0,-1.0016591E1,-1.5775144E0,-2.7876046E0,3.0786765E0,-3.384314E0,1.5986474E0,1.2011746E0,6.6019454E0,4.269487E0,1.0075589E1,6.4797893E0,1.3234248E1,-1.0816499E1,-6.526862E0,-8.0469265E0,-3.1483636E0,-1.2661513E0,-6.8843203E0,-4.7580476E0,-1.2921135E0,-1.0707882E1,-2.197252E0,-2.3946543E0,2.628054E-1,-4.236527E0,2.528353E0,1.9371647E0,5.5972323E0,7.681802E0,-4.309799E0,8.18932E-1,7.055803E0,4.516541E0,-1.7778498E0,3.6132703E0,8.80219E0,3.692221E0,9.645032E0,-3.6464322E0,1.100737E1,-9.1957754E-1,7.9527454E0,6.636705E0,1.5698833E1,-1.2561563E0,-9.0664893E-1,-9.368002E-1,-2.710523E-1,-9.0369236E-1,5.5420876E-2,-4.442447E-1,8.578416E-1,9.763163E-2,-4.3835074E-1,-5.0894774E-2,-7.5661844E-1,-5.832461E-1,-1.1984455E-2,-1.7984043E-1,2.9083428E-1,-1.1417744E0,-4.1547164E-1,1.810802E-1,-4.964245E-1,-2.7854908E-1,3.6086243E-1,-8.8691777E-1,6.180029E-2,-6.807001E-1,-2.4263315E-1,2.2176805E0,1.6205096E-1,1.18786156E-1,7.665287E-1,2.0768404E-1,8.016929E-1,3.0501142E-1,1.1550962E0,2.5250617E-1,-5.366592E-1,5.8562923E-3,5.2990097E-1,3.486241E-1,1.2939982E0,2.4774075E-1,1.4680904E0,-8.704643E-1,-6.7151055E-2,6.417195E-2,8.7313646E-1,5.685192E-1,1.1772038E0,8.214424E-1,3.0775425E-1,1.3300704E0,1.766335E-1,3.4095836E-1,-8.5619587E-1,-1.16326645E-1,1.1870947E0,-5.1607764E-1,5.876531E-1,9.2637855E-1,1.5665838E-1,2.1390195E-1,1.1537706E0,1.3380127E0,2.043806E0],"categories":[],"categories_nodes":[],"categories_segments":[],"categories_sizes":[],"default_left":[0,0,0,0,0,0,0,0,0,0,0,0,0,0,0,0,0,0,0,0,0,0,0,0,0,0,0,0,0,0,0,0,0,0,0,0,0,0,0,0,0,0,0,0,0,0,0,0,0,0,0,0,0,0,0,0,0,0,0,0,0,0,0,0,0,0,0,0,0,0,0,0,0,0,0,0,0,0,0,0,0,0,0,0,0,0,0,0,0,0,0,0,0,0,0,0,0,0,0,0,0,0,0,0,0,0,0,0,0,0,0,0,0,0,0,0,0,0,0,0,0,0,0,0,0,0,0],"id":7,"left_children":[1,3,5,7,9,11,13,15,17,19,21,23,25,27,29,31,33,35,37,39,41,43,45,47,49,51,53,55,57,59,61,63,65,67,69,71,73,75,77,79,81,83,85,87,89,91,93,95,97,99,101,103,105,107,109,111,113,115,117,119,121,123,125,-1,-1,-1,-1,-1,-1,-1,-1,-1,-1,-1,-1,-1,-1,-1,-1,-1,-1,-1,-1,-1,-1,-1,-1,-1,-1,-1,-1,-1,-1,-1,-1,-1,-1,-1,-1,-1,-1,-1,-1,-1,-1,-1,-1,-1,-1,-1,-1,-1,-1,-1,-1,-1,-1,-1,-1,-1,-1,-1,-1,-1,-1,-1,-1],"loss_changes":[4.2861496E4,2.8575246E4,7.529742E3,8.772215E3,2.2831885E4,3.607104E3,4.108051E3,1.2008477E3,8.257789E3,5.689081E3,1.5587219E4,1.9378678E3,3.1603428E3,3.1259434E3,2.393961E3,7.3143945E2,6.51666E2,2.2996602E3,5.1372754E3,4.2512305E2,3.2533452E3,4.123799E3,8.585291E3,1.0470181E3,1.5643274E3,1.7759336E3,1.8028477E3,1.5842158E3,1.4977324E3,1.0645103E3,1.9445996E3,2.9227637E2,7.0107227E2,4.2224805E2,1.054863E3,6.1944977E2,2.0175664E3,2.5158906E3,5.9683633E3,3.0610254E2,9.771132E1,3.5248096E3,2.165757E3,1.937769E3,2.0153995E3,8.82833E3,7.9223906E3,1.08134186E2,6.7806946E2,1.1033999E3,9.210691E2,1.7253811E3,7.2217615E2,1.8194381E3,1.4141943E3,1.2895181E3,1.416603E3,3.0666495E2,1.1384102E3,5.203294E2,6.6366113E2,7.688744E2,7.2652344E2,0E0,0E0,0E0,0E0,0E0,0E0,0E0,0E0,0E0,0E0,0E0,0E0,0E0,0E0,0E0,0E0,0E0,0E0,0E0,0E0,0E0,0E0,0E0,0E0,0E0,0E0,0E0,0E0,0E0,0E0,0E0,0E0,0E0,0E0,0E0,0E0,0E0,0E0,0E0,0E0,0E0,0E0,0E0,0E0,0E0,0E0,0E0,0E0,0E0,0E0,0E0,0E0,0E0,0E0,0E0,0E0,0E0,0E0,0E0,0E0,0E0,0E0,0E0,0E0],"parents":[2147483647,0,0,1,1,2,2,3,3,4,4,5,5,6,6,7,7,8,8,9,9,10,10,11,11,12,12,13,13,14,14,15,15,16,16,17,17,18,18,19,19,20,20,21,21,22,22,23,23,24,24,25,25,26,26,27,27,28,28,29,29,30,30,31,31,32,32,33,33,34,34,35,35,36,36,37,37,38,38,39,39,40,40,41,41,42,42,43,43,44,44,45,45,46,46,47,47,48,48,49,49,50,50,51,51,52,52,53,53,54,54,55,55,56,56,57,57,58,58,59,59,60,60,61,61,62,62],"right_children":[2,4,6,8,10,12,14,16,18,20,22,24,26,28,30,32,34,36,38,40,42,44,46,48,50,52,54,56,58,60,62,64,66,68,70,72,74,76,78,80,82,84,86,88,90,92,94,96,98,100,102,104,106,108,110,112,114,116,118,120,122,124,126,-1,-1,-1,-1,-1,-1,-1,-1,-1,-1,-1,-1,-1,-1,-1,-1,-1,-1,-1,-1,-1,-1,-1,-1,-1,-1,-1,-1,-1,-1,-1,-1,-1,-1,-1,-1,-1,-1,-1,-1,-1,-1,-1,-1,-1,-1,-1,-1,-1,-1,-1,-1,-1,-1,-1,-1,-1,-1,-1,-1,-1,-1,-1,-1],"split_conditions":[2.5E0,2.2E1,8.5E0,2.13E1,4E-1,1.714675E-1,2.6855865E-1,7.1E1,-1.2E1,-3.5E1,2.69E1,3.938619E-1,2.66E1,4.8058254E-1,1.1353619E-1,1.9265468E-1,1.68E1,5E-1,2E1,1.7E1,3.65E1,3.43E1,1.2E1,3.6E-1,3.08E1,1.7E1,1.563E3,2.4E1,1.0933334E0,3.960786E-1,1.6563147E-1,1.1811043E0,1.58E1,3.33E1,5.2089137E-1,-2.14E1,1.03E2,3.618677E-1,1.6368574E-1,5.1376146E-1,1.2775053E0,3.42E1,3.9302325E-1,3.3E1,2.3624454E0,4.12E1,1.1171E2,3.3955327E-3,3.6601308E-1,4.025E1,8.511776E-2,2.28E1,3.08E1,3.63E1,1.1437372E0,1.057E3,3.3277822E-1,7.3170733E-1,2.5477722E0,1.1977155E0,2.3365913E-1,3.04E-1,1.7784091E0,-1.2561563E0,-9.0664893E-1,-9.368002E-1,-2.710523E-1,-9.0369236E-1,5.5420876E-2,-4.442447E-1,8.578416E-1,9.763163E-2,-4.3835074E-1,-5.0894774E-2,-7.5661844E-1,-5.832461E-1,-1.1984455E-2,-1.7984043E-1,2.9083428E-1,-1.1417744E0,-4.1547164E-1,1.810802E-1,-4.964245E-1,-2.7854908E-1,3.6086243E-1,-8.8691777E-1,6.180029E-2,-6.807001E-1,-2.4263315E-1,2.2176805E0,1.6205096E-1,1.18786156E-1,7.665287E-1,2.0768404E-1,8.016929E-1,3.0501142E-1,1.1550962E0,2.5250617E-1,-5.366592E-1,5.8562923E-3,5.2990097E-1,3.486241E-1,1.2939982E0,2.4774075E-1,1.4680904E0,-8.704643E-1,-6.7151055E-2,6.417195E-2,8.7313646E-1,5.685192E-1,1.1772038E0,8.214424E-1,3.0775425E-1,1.3300704E0,1.766335E-1,3.4095836E-1,-8.5619587E-1,-1.16326645E-1,1.1870947E0,-5.1607764E-1,5.876531E-1,9.2637855E-1,1.5665838E-1,2.1390195E-1,1.1537706E0,1.3380127E0,2.043806E0],"split_indices":[110,100,110,119,105,57,57,55,108,110,48,41,48,39,34,40,119,98,48,101,100,119,108,5,119,123,95,110,30,70,80,6,100,48,88,108,126,71,57,35,25,48,41,51,28,100,127,4,39,100,72,120,119,48,30,52,70,60,62,6,4,90,32,0,0,0,0,0,0,0,0,0,0,0,0,0,0,0,0,0,0,0,0,0,0,0,0,0,0,0,0,0,0,0,0,0,0,0,0,0,0,0,0,0,0,0,0,0,0,0,0,0,0,0,0,0,0,0,0,0,0,0,0,0,0,0,0],"split_type":[0,0,0,0,0,0,0,0,0,0,0,0,0,0,0,0,0,0,0,0,0,0,0,0,0,0,0,0,0,0,0,0,0,0,0,0,0,0,0,0,0,0,0,0,0,0,0,0,0,0,0,0,0,0,0,0,0,0,0,0,0,0,0,0,0,0,0,0,0,0,0,0,0,0,0,0,0,0,0,0,0,0,0,0,0,0,0,0,0,0,0,0,0,0,0,0,0,0,0,0,0,0,0,0,0,0,0,0,0,0,0,0,0,0,0,0,0,0,0,0,0,0,0,0,0,0,0],"sum_hessian":[1.1713E4,9.936E3,1.777E3,4.17E3,5.766E3,9.22E2,8.55E2,3.12E2,3.858E3,2.244E3,3.522E3,4.66E2,4.56E2,6.34E2,2.21E2,1.98E2,1.14E2,5.51E2,3.307E3,8.2E1,2.162E3,5.33E2,2.989E3,9.8E1,3.68E2,1.78E2,2.78E2,5.21E2,1.13E2,9.6E1,1.25E2,1.32E2,6.6E1,4.8E1,6.6E1,8.7E1,4.64E2,5.04E2,2.803E3,7.5E1,7E0,1.497E3,6.65E2,4.19E2,1.14E2,2.058E3,9.31E2,7E0,9.1E1,3.23E2,4.5E1,8.4E1,9.4E1,1.19E2,1.59E2,4.72E2,4.9E1,7E0,1.06E2,1.6E1,8E1,3.5E1,9E1,6.3E1,6.9E1,3.7E1,2.9E1,4.3E1,5E0,6E1,6E0,5.1E1,3.6E1,4.5E1,4.19E2,4.09E2,9.5E1,2.502E3,3.01E2,6.7E1,8E0,3E0,4E0,1.406E3,9.1E1,2.4E1,6.41E2,1.72E2,2.47E2,4E0,1.1E2,1.821E3,2.37E2,3.8E2,5.51E2,4E0,3E0,1.2E1,7.9E1,2.77E2,4.6E1,2.9E1,1.6E1,7.1E1,1.3E1,1.2E1,8.2E1,7.6E1,4.3E1,7.9E1,8E1,5.5E1,4.17E2,3.3E1,1.6E1,3E0,4E0,7E0,9.9E1,1E1,6E0,6.6E1,1.4E1,1.9E1,1.6E1,6.3E1,2.7E1],"tree_param":{"num_deleted":"0","num_feature":"128","num_nodes":"127","size_leaf_vector":"1"}},{"base_weights":[4.429841E-3,-8.064902E-1,4.081182E0,-2.3263292E0,8.119679E-1,2.4575746E0,6.4823065E0,-5.8642087E0,-1.8082966E0,5.7829733E0,-3.434775E-1,5.2486444E0,1.3682867E0,3.1563632E0,7.9759016E0,-6.047278E0,4.250882E0,-2.1275182E0,2.7616484E0,4.6820903E0,1.2134033E1,-2.226807E0,1.128006E0,7.6940036E0,2.516999E0,-2.5360005E0,2.7518697E0,-1.4215871E0,4.4341273E0,6.8827386E0,1.2082134E1,-6.326039E0,6.825749E-1,-2.8044853E0,1.4689294E0,-1.6075393E0,-4.2362266E0,-3.1889153E0,4.0919385E0,2.9371476E0,7.4592104E0,9.563679E0,1.8910898E1,-2.7817445E0,1.0708745E0,-2.948598E0,1.9048442E0,5.4606686E0,1.2182805E1,-2.8116877E0,3.4195762E0,-5.949333E-1,-5.3645825E0,-2.8612065E0,3.418013E0,7.2278767E0,-3.0829694E0,-2.4891748E0,5.4439983E0,5.8619885E0,1.1387873E1,1.6673182E1,9.594908E0,-7.489792E-1,-5.205419E-1,-4.4038945E-1,1.0779672E0,-5.6942487E-1,1.5088402E-1,-5.0642073E-1,-1.1881447E-1,-4.731423E-1,3.0827236E-1,-7.8406477E-1,-1.1463722E-1,2.0041446E-1,9.1898423E-1,-5.95282E-1,3.451116E-1,3.405297E-1,9.4174355E-1,1.1968231E0,4.3054268E-1,1.46815E0,2.949788E0,-5.001475E-1,-1.9755642E-1,-2.267056E-1,3.5846287E-1,-7.545503E-1,-1.7928757E-1,-3.1004456E-1,2.3006693E-1,1.841749E-1,7.0016617E-1,8.8528615E-1,1.6575644E0,5.142554E-1,-7.396787E-1,8.6639327E-1,1.7407629E-1,-5.3106374E-1,9.829774E-2,-6.171385E-1,4.9681553E-1,2.9589292E-1,-5.2769834E-1,3.0533776E-1,1.2964655E0,1.2620788E0,3.893898E-2,-9.8545855E-1,-1.6148694E-1,-4.999434E-1,6.2932175E-1,1.3507425E0,4.5001426E-1,6.716663E-1,1.6048719E-1,1.3271035E0,2.593856E-1,1.036544E0,1.8859099E0,4.521143E-1,1.235471E0],"categories":[],"categories_nodes":[],"categories_segments":[],"categories_sizes":[],"default_left":[0,0,0,0,0,0,0,0,0,0,0,0,0,0,0,0,0,0,0,0,0,0,0,0,0,0,0,0,0,0,0,0,0,0,0,0,0,0,0,0,0,0,0,0,0,0,0,0,0,0,0,0,0,0,0,0,0,0,0,0,0,0,0,0,0,0,0,0,0,0,0,0,0,0,0,0,0,0,0,0,0,0,0,0,0,0,0,0,0,0,0,0,0,0,0,0,0,0,0,0,0,0,0,0,0,0,0,0,0,0,0,0,0,0,0,0,0,0,0,0,0,0,0,0,0],"id":8,"left_children":[1,3,5,7,9,11,13,15,17,19,21,23,25,27,29,31,33,35,37,39,41,43,45,47,49,51,53,55,57,59,61,63,65,67,-1,69,71,73,75,77,79,81,83,85,87,89,91,93,95,97,99,101,103,105,107,109,111,113,115,117,119,121,123,-1,-1,-1,-1,-1,-1,-1,-1,-1,-1,-1,-1,-1,-1,-1,-1,-1,-1,-1,-1,-1,-1,-1,-1,-1,-1,-1,-1,-1,-1,-1,-1,-1,-1,-1,-1,-1,-1,-1,-1,-1,-1,-1,-1,-1,-1,-1,-1,-1,-1,-1,-1,-1,-1,-1,-1,-1,-1,-1,-1,-1,-1],"loss_changes":[3.8656105E4,2.3992277E4,7.547123E3,9.208061E3,2.7135344E4,3.5165005E3,3.8595E3,1.2145371E3,6.408657E3,6.1728574E3,1.0627631E4,2.151587E3,4.517569E3,1.4335918E3,2.3362969E3,1.1880859E3,9.249579E2,4.4920645E3,2.284934E3,3.66583E3,2.1010234E3,3.0810498E3,6.823869E3,1.647749E3,7.550954E2,1.199221E3,2.316813E3,7.9826685E2,1.3489543E3,1.9014512E3,1.1189473E3,7.513125E2,1.3827955E3,1.0830764E2,0E0,4.767871E3,2.9539072E3,4.9458398E2,2.4827742E3,2.1634817E3,2.2939033E3,1.1749141E3,1.1341064E3,2.567005E3,2.0470756E3,1.8193689E3,3.5911582E3,6.340054E2,6.724209E2,8.76871E2,1.1558892E3,9.799859E2,7.726067E2,9.43584E2,1.8819521E3,3.2699976E2,4.4139102E2,5.826145E2,1.2102041E3,1.2663174E3,1.2573008E3,3.2846777E2,9.943369E2,0E0,0E0,0E0,0E0,0E0,0E0,0E0,0E0,0E0,0E0,0E0,0E0,0E0,0E0,0E0,0E0,0E0,0E0,0E0,0E0,0E0,0E0,0E0,0E0,0E0,0E0,0E0,0E0,0E0,0E0,0E0,0E0,0E0,0E0,0E0,0E0,0E0,0E0,0E0,0E0,0E0,0E0,0E0,0E0,0E0,0E0,0E0,0E0,0E0,0E0,0E0,0E0,0E0,0E0,0E0,0E0,0E0,0E0,0E0,0E0,0E0,0E0],"parents":[2147483647,0,0,1,1,2,2,3,3,4,4,5,5,6,6,7,7,8,8,9,9,10,10,11,11,12,12,13,13,14,14,15,15,16,16,17,17,18,18,19,19,20,20,21,21,22,22,23,23,24,24,25,25,26,26,27,27,28,28,29,29,30,30,31,31,32,32,33,33,35,35,36,36,37,37,38,38,39,39,40,40,41,41,42,42,43,43,44,44,45,45,46,46,47,47,48,48,49,49,50,50,51,51,52,52,53,53,54,54,55,55,56,56,57,57,58,58,59,59,60,60,61,61,62,62],"right_children":[2,4,6,8,10,12,14,16,18,20,22,24,26,28,30,32,34,36,38,40,42,44,46,48,50,52,54,56,58,60,62,64,66,68,-1,70,72,74,76,78,80,82,84,86,88,90,92,94,96,98,100,102,104,106,108,110,112,114,116,118,120,122,124,-1,-1,-1,-1,-1,-1,-1,-1,-1,-1,-1,-1,-1,-1,-1,-1,-1,-1,-1,-1,-1,-1,-1,-1,-1,-1,-1,-1,-1,-1,-1,-1,-1,-1,-1,-1,-1,-1,-1,-1,-1,-1,-1,-1,-1,-1,-1,-1,-1,-1,-1,-1,-1,-1,-1,-1,-1,-1,-1,-1,-1,-1],"split_conditions":[-5E-1,2E0,2.084631E-1,-2.45E1,-9.333333E0,1.208E3,3.0860534E-1,3.74522E-1,3.33E1,4.54E1,2.16E1,2.1588543E-1,2.75E1,1.5227E2,3.121229E-1,-1.5525126E0,1.0782396E0,3E0,-1.8915E1,2.022E3,2.023E3,4.265403E-1,2.8E1,4.7215778E-1,2.4E-1,-4.5E0,2.16E1,4.1437632E-1,1.4E1,2.361836E-1,4.8503302E-2,-3.35E1,1.096E0,7.5E-1,1.4689294E0,2.57E1,7E-1,-2.64E1,1.2420301E0,3.014354E-1,3.24E1,-2.8E1,4E0,1.3666667E1,7.298097E-2,3.3E1,2.25E1,3.9423078E-1,3E0,4.46E1,9.64E2,-9.046E0,4.15E1,-2.2705158E-2,2.45E1,3.0064374E-1,6.4E-1,2.3349057E-1,1.18E1,1.567E3,4.3534482E-1,1.0579048E-1,1.156398E0,-7.489792E-1,-5.205419E-1,-4.4038945E-1,1.0779672E0,-5.6942487E-1,1.5088402E-1,-5.0642073E-1,-1.1881447E-1,-4.731423E-1,3.0827236E-1,-7.8406477E-1,-1.1463722E-1,2.0041446E-1,9.1898423E-1,-5.95282E-1,3.451116E-1,3.405297E-1,9.4174355E-1,1.1968231E0,4.3054268E-1,1.46815E0,2.949788E0,-5.001475E-1,-1.9755642E-1,-2.267056E-1,3.5846287E-1,-7.545503E-1,-1.7928757E-1,-3.1004456E-1,2.3006693E-1,1.841749E-1,7.0016617E-1,8.8528615E-1,1.6575644E0,5.142554E-1,-7.396787E-1,8.6639327E-1,1.7407629E-1,-5.3106374E-1,9.829774E-2,-6.171385E-1,4.9681553E-1,2.9589292E-1,-5.2769834E-1,3.0533776E-1,1.2964655E0,1.2620788E0,3.893898E-2,-9.8545855E-1,-1.6148694E-1,-4.999434E-1,6.2932175E-1,1.3507425E0,4.5001426E-1,6.716663E-1,1.6048719E-1,1.3271035E0,2.593856E-1,1.036544E0,1.8859099E0,4.521143E-1,1.235471E0],"split_indices":[110,104,57,110,101,52,37,91,48,100,100,93,119,127,57,122,30,97,124,0,0,75,119,24,18,45,48,16,51,38,91,110,83,98,0,48,124,122,59,18,100,101,104,100,23,51,48,75,104,102,52,124,100,15,110,36,79,27,120,52,94,38,30,0,0,0,0,0,0,0,0,0,0,0,0,0,0,0,0,0,0,0,0,0,0,0,0,0,0,0,0,0,0,0,0,0,0,0,0,0,0,0,0,0,0,0,0,0,0,0,0,0,0,0,0,0,0,0,0,0,0,0,0,0,0],"split_type":[0,0,0,0,0,0,0,0,0,0,0,0,0,0,0,0,0,0,0,0,0,0,0,0,0,0,0,0,0,0,0,0,0,0,0,0,0,0,0,0,0,0,0,0,0,0,0,0,0,0,0,0,0,0,0,0,0,0,0,0,0,0,0,0,0,0,0,0,0,0,0,0,0,0,0,0,0,0,0,0,0,0,0,0,0,0,0,0,0,0,0,0,0,0,0,0,0,0,0,0,0,0,0,0,0,0,0,0,0,0,0,0,0,0,0,0,0,0,0,0,0,0,0,0,0],"sum_hessian":[1.1691E4,9.752E3,1.939E3,5.029E3,4.723E3,1.158E3,7.81E2,6.41E2,4.388E3,8.9E2,3.833E3,3.24E2,8.34E2,2.43E2,5.38E2,6.3E2,1.1E1,4.102E3,2.86E2,7.6E2,1.3E2,1.681E3,2.152E3,1.7E2,1.54E2,2.18E2,6.16E2,5.3E1,1.9E2,4.27E2,1.11E2,6.05E2,2.5E1,7E0,4E0,3.292E3,8.1E2,5.2E1,2.34E2,4.68E2,2.92E2,9.6E1,3.4E1,1.439E3,2.42E2,3.44E2,1.808E3,1.15E2,5.5E1,2.2E1,1.32E2,1.3E2,8.8E1,6.5E1,5.51E2,8E0,4.5E1,2.4E1,1.66E2,3.5E2,7.7E1,3.7E1,7.4E1,2.94E2,3.11E2,1.7E1,8E0,4E0,3E0,3.55E2,2.937E3,7.59E2,5.1E1,1.5E1,3.7E1,1.67E2,6.7E1,2.5E1,4.43E2,9.6E1,1.96E2,6.5E1,3.1E1,2.6E1,8E0,3.82E2,1.057E3,1.04E2,1.38E2,6.8E1,2.76E2,1.32E2,1.676E3,3.5E1,8E1,3.3E1,2.2E1,8E0,1.4E1,3.1E1,1.01E2,3.2E1,9.8E1,8.2E1,6E0,1.9E1,4.6E1,5.32E2,1.9E1,4E0,4E0,7E0,3.8E1,1.9E1,5E0,1.6E1,1.5E2,2.91E2,5.9E1,6.3E1,1.4E1,1.1E1,2.6E1,2.7E1,4.7E1],"tree_param":{"num_deleted":"0","num_feature":"128","num_nodes":"125","size_leaf_vector":"1"}},{"base_weights":[-3.036143E-2,-7.714024E-1,3.5155385E0,-1.573043E0,1.9600998E0,1.8237478E0,5.270552E0,-3.9295998E0,-8.916074E-1,-6.582547E-1,5.319824E0,1.488094E0,1.129462E1,5.2747506E-1,6.14574E0,3.0434945E0,-4.1911945E0,-4.151206E0,-2.72241E-1,-4.9641747E0,-6.015455E-2,1.2663782E1,4.322746E0,-1.5579569E0,2.146188E0,5.535085E0,1.6426676E1,-7.3272765E-1,7.7918005E0,5.167672E0,9.367365E0,-2.2972035E0,5.5142198E0,-4.450746E0,2.152198E0,-4.8980584E0,-1.3739834E0,-9.2969257E-1,2.2279031E0,-6.009268E0,3.0336905E0,1.0030372E1,-2.695238E-1,1.5021017E1,8.100387E0,-6.281575E-1,5.462296E0,-8.347715E-1,-8.782837E0,6.736105E0,1.6594858E0,1.4757402E0,1.3407819E0,7.63701E-1,1.8392508E0,4.543867E0,-1.5981413E0,1.14971485E1,7.504643E-1,4.1230555E0,8.816866E0,1.0780694E1,1.919656E0,-5.627642E-1,2.3986264E-1,8.824639E-1,-1.03284374E-1,-4.5948216E-1,1.9087033E-1,-4.077197E-1,4.4921327E-1,-6.2592524E-1,-3.4697646E-1,-3.1139633E-1,1.8273227E-1,-2.3719846E-1,-1.7652722E-2,-1.2403206E-1,3.2381013E-1,-6.524059E-1,5.9744924E-1,7.30481E-1,-3.2183105E-1,-4.246041E-1,1.2508018E0,-4.3640662E-2,1.2230177E0,1.5770153E0,3.9024657E-1,5.377279E-1,1.6004292E0,-8.4095955E-1,1.0992461E-1,4.3975973E-1,1.1067785E0,-5.230352E-1,3.3022486E-2,-3.1906304E-1,-1.1819098E0,1.2894306E-1,9.132971E-1,1.0868525E-1,4.0425292E-1,-2.1899633E-1,1.0271064E0,7.9871607E-1,-1.18905686E-1,-2.0946656E-1,9.7443265E-1,1.3846407E0,4.0293512E-1,-4.2100844E-1,3.9324197E-1,-9.079342E-2,4.695252E-1,6.6936034E-1,1.2363021E0,7.149724E-1,1.3906323E0,4.6036682E-1,-6.7078394E-1],"categories":[],"categories_nodes":[],"categories_segments":[],"categories_sizes":[],"default_left":[0,0,0,0,0,0,0,0,0,0,0,0,0,0,0,0,0,0,0,0,0,0,0,0,0,0,0,0,0,0,0,0,0,0,0,0,0,0,0,0,0,0,0,0,0,0,0,0,0,0,0,0,0,0,0,0,0,0,0,0,0,0,0,0,0,0,0,0,0,0,0,0,0,0,0,0,0,0,0,0,0,0,0,0,0,0,0,0,0,0,0,0,0,0,0,0,0,0,0,0,0,0,0,0,0,0,0,0,0,0,0,0,0,0,0,0,0,0,0,0,0],"id":9,"left_children":[1,3,5,7,9,11,13,15,17,19,21,23,25,27,29,31,33,35,37,39,41,43,45,47,49,51,53,55,57,59,61,63,65,67,69,71,73,75,77,79,81,83,85,87,89,91,93,95,97,99,101,103,-1,-1,-1,105,107,109,111,113,115,117,119,-1,-1,-1,-1,-1,-1,-1,-1,-1,-1,-1,-1,-1,-1,-1,-1,-1,-1,-1,-1,-1,-1,-1,-1,-1,-1,-1,-1,-1,-1,-1,-1,-1,-1,-1,-1,-1,-1,-1,-1,-1,-1,-1,-1,-1,-1,-1,-1,-1,-1,-1,-1,-1,-1,-1,-1,-1,-1],"loss_changes":[3.061492E4,2.1105059E4,5.9701875E3,1.1961625E4,1.924243E4,3.2479578E3,4.0980254E3,3.0608691E3,1.1670049E4,3.1674082E3,6.960211E3,1.9938997E3,9.436157E2,1.4246604E3,2.5795E3,8.175865E2,2.6619902E3,1.9077344E3,7.9889243E3,1.2720073E3,2.2864739E3,1.104623E3,4.770753E3,9.174807E2,1.8139365E3,5.5546014E2,1.705586E2,6.145979E2,5.9145544E2,2.410959E3,2.0108359E3,3.2628207E2,9.1940247E2,1.4271094E3,9.512034E2,1.3917051E3,1.1030212E3,4.1796035E3,3.5496528E3,8.5947314E2,5.0416394E2,8.3129126E2,2.2164812E3,5.548242E2,7.963911E2,2.1464717E3,4.0514531E3,8.313026E2,2.3395996E2,1.00651025E3,1.00541785E3,4.4162686E2,0E0,0E0,0E0,3.8455988E2,6.6806934E2,2.0736499E2,1.5861401E2,1.446499E3,9.864238E2,1.739123E3,7.7188226E2,0E0,0E0,0E0,0E0,0E0,0E0,0E0,0E0,0E0,0E0,0E0,0E0,0E0,0E0,0E0,0E0,0E0,0E0,0E0,0E0,0E0,0E0,0E0,0E0,0E0,0E0,0E0,0E0,0E0,0E0,0E0,0E0,0E0,0E0,0E0,0E0,0E0,0E0,0E0,0E0,0E0,0E0,0E0,0E0,0E0,0E0,0E0,0E0,0E0,0E0,0E0,0E0,0E0,0E0,0E0,0E0,0E0,0E0],"parents":[2147483647,0,0,1,1,2,2,3,3,4,4,5,5,6,6,7,7,8,8,9,9,10,10,11,11,12,12,13,13,14,14,15,15,16,16,17,17,18,18,19,19,20,20,21,21,22,22,23,23,24,24,25,25,26,26,27,27,28,28,29,29,30,30,31,31,32,32,33,33,34,34,35,35,36,36,37,37,38,38,39,39,40,40,41,41,42,42,43,43,44,44,45,45,46,46,47,47,48,48,49,49,50,50,51,51,55,55,56,56,57,57,58,58,59,59,60,60,61,61,62,62],"right_children":[2,4,6,8,10,12,14,16,18,20,22,24,26,28,30,32,34,36,38,40,42,44,46,48,50,52,54,56,58,60,62,64,66,68,70,72,74,76,78,80,82,84,86,88,90,92,94,96,98,100,102,104,-1,-1,-1,106,108,110,112,114,116,118,120,-1,-1,-1,-1,-1,-1,-1,-1,-1,-1,-1,-1,-1,-1,-1,-1,-1,-1,-1,-1,-1,-1,-1,-1,-1,-1,-1,-1,-1,-1,-1,-1,-1,-1,-1,-1,-1,-1,-1,-1,-1,-1,-1,-1,-1,-1,-1,-1,-1,-1,-1,-1,-1,-1,-1,-1,-1,-1],"split_conditions":[-1E0,3.26E1,1.1467623E-1,-1.05E1,2E0,2.45E1,1.0287019E-1,7.1E1,-1.45E1,-1.5E1,-3.075E1,2.61E1,5.15E1,5.0348026E-1,4.7702408E-1,2.6907306E-2,3.33E1,4.7717842E-1,6.14E1,1.2610333E0,6.25E-1,2.74E1,9.6E1,1.9925575E-1,1.0209956E0,-8.4E0,2.830228E0,1.0927187E0,1.3963911E-1,3.99E1,6.98E1,3.3216783E-1,-1.15E1,-5.5E0,1.5955272E-1,3.0526316E-1,6.8268724E-2,1.58E1,1.4386988E-1,1.7126E2,4.408397E-1,-7.2918765E-2,3.5546875E-1,1.68E1,6.6E1,3.014354E-1,1.92E1,-8E-1,3.215638E0,5E-1,1.8665837E-1,5.82E1,1.3407819E0,7.63701E-1,1.8392508E0,2.46E1,4.04E1,1.76E1,3.974359E-1,1.3168724E-1,2.8248608E-1,2.703528E-1,1.8666667E-1,-5.627642E-1,2.3986264E-1,8.824639E-1,-1.03284374E-1,-4.5948216E-1,1.9087033E-1,-4.077197E-1,4.4921327E-1,-6.2592524E-1,-3.4697646E-1,-3.1139633E-1,1.8273227E-1,-2.3719846E-1,-1.7652722E-2,-1.2403206E-1,3.2381013E-1,-6.524059E-1,5.9744924E-1,7.30481E-1,-3.2183105E-1,-4.246041E-1,1.2508018E0,-4.3640662E-2,1.2230177E0,1.5770153E0,3.9024657E-1,5.377279E-1,1.6004292E0,-8.4095955E-1,1.0992461E-1,4.3975973E-1,1.1067785E0,-5.230352E-1,3.3022486E-2,-3.1906304E-1,-1.1819098E0,1.2894306E-1,9.132971E-1,1.0868525E-1,4.0425292E-1,-2.1899633E-1,1.0271064E0,7.9871607E-1,-1.18905686E-1,-2.0946656E-1,9.7443265E-1,1.3846407E0,4.0293512E-1,-4.2100844E-1,3.9324197E-1,-9.079342E-2,4.695252E-1,6.6936034E-1,1.2363021E0,7.149724E-1,1.3906323E0,4.6036682E-1,-6.7078394E-1],"split_indices":[110,100,68,108,104,110,23,123,110,110,101,48,102,75,39,68,48,69,109,78,79,107,55,19,78,101,62,6,19,119,109,90,110,110,21,37,38,100,23,127,20,72,71,99,102,18,108,121,9,105,38,109,0,0,0,107,108,107,71,61,40,17,61,0,0,0,0,0,0,0,0,0,0,0,0,0,0,0,0,0,0,0,0,0,0,0,0,0,0,0,0,0,0,0,0,0,0,0,0,0,0,0,0,0,0,0,0,0,0,0,0,0,0,0,0,0,0,0,0,0,0],"split_type":[0,0,0,0,0,0,0,0,0,0,0,0,0,0,0,0,0,0,0,0,0,0,0,0,0,0,0,0,0,0,0,0,0,0,0,0,0,0,0,0,0,0,0,0,0,0,0,0,0,0,0,0,0,0,0,0,0,0,0,0,0,0,0,0,0,0,0,0,0,0,0,0,0,0,0,0,0,0,0,0,0,0,0,0,0,0,0,0,0,0,0,0,0,0,0,0,0,0,0,0,0,0,0,0,0,0,0,0,0,0,0,0,0,0,0,0,0,0,0,0,0],"sum_hessian":[1.1649E4,9.636E3,2.013E3,7.45E3,2.186E3,1.026E3,9.87E2,1.67E3,5.78E3,1.229E3,9.57E2,9.92E2,3.4E1,1.54E2,8.33E2,6E1,1.61E3,9.22E2,4.858E3,1.49E2,1.08E3,1.13E2,8.44E2,1.76E2,8.16E2,1.7E1,1.7E1,1.32E2,2.2E1,6.41E2,1.92E2,1.9E1,4.1E1,1.547E3,6.3E1,7.26E2,1.96E2,3.847E3,1.011E3,1.32E2,1.7E1,2.1E1,1.059E3,7.3E1,4E1,1.58E2,6.86E2,1.61E2,1.5E1,7.7E1,7.39E2,1.2E1,5E0,4E0,1.3E1,1.8E1,1.14E2,1.4E1,8E0,5E2,1.41E2,1.61E2,3.1E1,1.1E1,8E0,2.7E1,1.4E1,1.513E3,3.4E1,1.7E1,4.6E1,3.7E2,3.56E2,1.27E2,6.9E1,1.319E3,2.528E3,2.28E2,7.83E2,1.27E2,5E0,1E1,7E0,3E0,1.8E1,1.046E3,1.3E1,6.8E1,5E0,3.1E1,9E0,2.8E1,1.3E2,5.78E2,1.08E2,3.3E1,1.28E2,6E0,9E0,2.4E1,5.3E1,5.97E2,1.42E2,9E0,3E0,1.1E1,7E0,1.1E2,4E0,1E1,4E0,3E0,5E0,5.1E1,4.49E2,9E1,5.1E1,7.6E1,8.5E1,2.4E1,7E0],"tree_param":{"num_deleted":"0","num_feature":"128","num_nodes":"121","size_leaf_vector":"1"}},{"base_weights":[-5.490907E-2,-1.4845301E0,1.7931072E0,-1.887931E0,2.5458786E0,-2.3270698E0,2.5256984E0,-4.761355E0,-1.435571E0,-6.8075234E-1,4.4492555E0,-4.203827E0,1.6495185E0,1.9462502E0,6.376287E0,-5.4402213E0,-3.9801127E-1,-8.4646076E-1,-3.5925598E0,-3.8128629E0,1.2533792E0,1.9246655E0,6.238805E0,-6.41316E0,-3.2218165E0,1.6883187E-1,5.602863E0,3.3288283E0,2.698169E-1,5.2195816E0,1.0031887E1,-7.547777E0,-4.527743E0,-3.3955314E0,4.0071964E0,-1.864217E0,2.600046E-1,6.580933E-2,-4.1551604E0,-4.534211E0,4.87276E0,4.071899E0,-1.032356E0,-3.336337E0,3.1426766E0,5.157672E0,1.1775112E1,-6.924109E0,1.0908967E0,1.3447914E0,-3.777366E0,-3.590263E0,1.448458E0,4.201033E0,1.7018398E0,1.3616228E-1,3.9728992E0,-2.612252E-1,4.185574E0,3.9367511E0,8.014344E0,1.2566218E1,5.9215655E0,-1.13144636E-1,-7.9309314E-1,-2.5871962E-1,-5.64257E-1,-5.140777E-1,4.8864722E-1,-3.8826236E-1,6.372363E-1,-1.0316201E-1,-3.829679E-1,-2.4592444E-2,2.978518E-1,-7.898053E-2,9.0117925E-1,-5.5884665E-1,-2.96784E-1,-7.0511127E-1,-1.16864555E-1,7.9552984E-1,5.7203103E-2,-1.7291775E-2,6.9446915E-1,-4.1060016E-1,1.2445917E-1,-4.815171E-2,-8.997826E-1,1.3551357E0,2.6093858E-1,6.15141E-1,-1.8168742E-2,1.3542163E0,2.7723163E-1,-7.226539E-1,1.4882228E-1,-2.5910515E-1,4.5910287E-1,-1.5449452E-1,9.103638E-1,-1.0173811E-1,-4.8555613E-1,-9.42227E-1,-1.657835E-2,5.83788E-1,-8.696981E-3,8.2863706E-1,1.13381624E-1,-4.028086E-2,1.2020376E0,3.392912E-1,1.0858711E0,-2.9154035E-1,5.052024E-2,-4.233027E-1,5.238031E-1,4.258132E-1,-8.1652355E-1,7.026932E-1,2.0947635E0,8.216772E-1,1.6319977E0,3.4731552E-1,1.3997538E0],"categories":[],"categories_nodes":[],"categories_segments":[],"categories_sizes":[],"default_left":[0,0,0,0,0,0,0,0,0,0,0,0,0,0,0,0,0,0,0,0,0,0,0,0,0,0,0,0,0,0,0,0,0,0,0,0,0,0,0,0,0,0,0,0,0,0,0,0,0,0,0,0,0,0,0,0,0,0,0,0,0,0,0,0,0,0,0,0,0,0,0,0,0,0,0,0,0,0,0,0,0,0,0,0,0,0,0,0,0,0,0,0,0,0,0,0,0,0,0,0,0,0,0,0,0,0,0,0,0,0,0,0,0,0,0,0,0,0,0,0,0,0,0,0,0],"id":10,"left_children":[1,3,5,7,9,11,13,15,17,19,21,23,25,27,29,31,33,35,37,39,41,43,45,47,49,51,53,55,57,59,61,63,65,67,69,71,73,75,77,79,81,83,85,87,89,91,93,95,97,99,101,103,105,107,-1,109,111,113,115,117,119,121,123,-1,-1,-1,-1,-1,-1,-1,-1,-1,-1,-1,-1,-1,-1,-1,-1,-1,-1,-1,-1,-1,-1,-1,-1,-1,-1,-1,-1,-1,-1,-1,-1,-1,-1,-1,-1,-1,-1,-1,-1,-1,-1,-1,-1,-1,-1,-1,-1,-1,-1,-1,-1,-1,-1,-1,-1,-1,-1,-1,-1,-1,-1],"loss_changes":[3.0673209E4,1.0647755E4,1.5291082E4,7.728408E3,3.6633594E3,5.7161978E3,9.581822E3,2.3941953E3,6.5321914E3,1.3496357E3,1.6821973E3,1.1075234E3,1.4390554E3,8.665356E3,2.3240312E3,1.3119941E3,1.4661234E3,4.5511035E3,2.2704678E3,5.546494E2,8.9325354E2,1.01653455E3,1.2500879E3,6.171904E2,9.2346533E2,8.7104285E2,1.0006819E3,4.212826E3,3.5174126E3,1.506501E3,1.3214541E3,5.072998E2,1.0476191E3,9.790929E2,8.6447455E2,3.4407495E3,2.6648337E3,1.139956E3,1.6103301E3,6.6095276E2,8.8249466E1,7.5725867E2,5.439971E2,4.8054324E2,6.7514844E2,9.827134E2,5.19251E2,3.8983154E2,1.5365594E2,9.109055E2,9.5624414E2,9.171311E2,9.1035913E2,7.549724E2,0E0,2.2146516E3,6.772385E3,3.0324836E3,1.811936E3,1.1860166E3,1.5640488E3,1.2046982E3,9.993689E2,0E0,0E0,0E0,0E0,0E0,0E0,0E0,0E0,0E0,0E0,0E0,0E0,0E0,0E0,0E0,0E0,0E0,0E0,0E0,0E0,0E0,0E0,0E0,0E0,0E0,0E0,0E0,0E0,0E0,0E0,0E0,0E0,0E0,0E0,0E0,0E0,0E0,0E0,0E0,0E0,0E0,0E0,0E0,0E0,0E0,0E0,0E0,0E0,0E0,0E0,0E0,0E0,0E0,0E0,0E0,0E0,0E0,0E0,0E0,0E0,0E0,0E0],"parents":[2147483647,0,0,1,1,2,2,3,3,4,4,5,5,6,6,7,7,8,8,9,9,10,10,11,11,12,12,13,13,14,14,15,15,16,16,17,17,18,18,19,19,20,20,21,21,22,22,23,23,24,24,25,25,26,26,27,27,28,28,29,29,30,30,31,31,32,32,33,33,34,34,35,35,36,36,37,37,38,38,39,39,40,40,41,41,42,42,43,43,44,44,45,45,46,46,47,47,48,48,49,49,50,50,51,51,52,52,53,53,55,55,56,56,57,57,58,58,59,59,60,60,61,61,62,62],"right_children":[2,4,6,8,10,12,14,16,18,20,22,24,26,28,30,32,34,36,38,40,42,44,46,48,50,52,54,56,58,60,62,64,66,68,70,72,74,76,78,80,82,84,86,88,90,92,94,96,98,100,102,104,106,108,-1,110,112,114,116,118,120,122,124,-1,-1,-1,-1,-1,-1,-1,-1,-1,-1,-1,-1,-1,-1,-1,-1,-1,-1,-1,-1,-1,-1,-1,-1,-1,-1,-1,-1,-1,-1,-1,-1,-1,-1,-1,-1,-1,-1,-1,-1,-1,-1,-1,-1,-1,-1,-1,-1,-1,-1,-1,-1,-1,-1,-1,-1,-1,-1,-1,-1,-1,-1],"split_conditions":[2.8E1,1.5946263E-1,2.28E1,2.57E1,1.1540405E0,3.6E1,3.46E1,1.58E3,9E0,2.09E1,4.099099E-1,1.56E1,4.9281314E-1,2.4E0,1.9519E1,2E0,4.7069266E-2,1.75E1,1.5288192E-1,4.8526523E-1,5.1E1,4.01766E-1,2.1474358E-1,4.875E1,3.85E1,2.9798076E0,7.714286E-1,4E0,4.46E1,3.26E1,5.824E0,-2.39563E0,1E-1,6.4543344E-2,9.235669E-1,1.23E2,4.025E1,2.4802656E-1,1.9E1,2.8E1,7.924528E-1,1.2383561E0,4.8E-1,3E1,2.6486486E-1,6.92E1,1.3778234E0,2.6318476E-1,6E0,1.641E3,1.145464E0,1.72E1,8.778E0,9.019609E-3,1.7018398E0,4.04E1,4.42E1,1.5E1,5E1,4.098181E-1,4.750733E-1,1.2742537E0,4.66E1,-1.13144636E-1,-7.9309314E-1,-2.5871962E-1,-5.64257E-1,-5.140777E-1,4.8864722E-1,-3.8826236E-1,6.372363E-1,-1.0316201E-1,-3.829679E-1,-2.4592444E-2,2.978518E-1,-7.898053E-2,9.0117925E-1,-5.5884665E-1,-2.96784E-1,-7.0511127E-1,-1.16864555E-1,7.9552984E-1,5.7203103E-2,-1.7291775E-2,6.9446915E-1,-4.1060016E-1,1.2445917E-1,-4.815171E-2,-8.997826E-1,1.3551357E0,2.6093858E-1,6.15141E-1,-1.8168742E-2,1.3542163E0,2.7723163E-1,-7.226539E-1,1.4882228E-1,-2.5910515E-1,4.5910287E-1,-1.5449452E-1,9.103638E-1,-1.0173811E-1,-4.8555613E-1,-9.42227E-1,-1.657835E-2,5.83788E-1,-8.696981E-3,8.2863706E-1,1.13381624E-1,-4.028086E-2,1.2020376E0,3.392912E-1,1.0858711E0,-2.9154035E-1,5.052024E-2,-4.233027E-1,5.238031E-1,4.258132E-1,-8.1652355E-1,7.026932E-1,2.0947635E0,8.216772E-1,1.6319977E0,3.4731552E-1,1.3997538E0],"split_indices":[106,57,48,48,32,119,119,95,101,48,41,48,75,101,124,103,34,106,57,22,118,73,61,106,102,62,79,1,106,48,53,50,49,38,66,55,100,74,106,51,7,13,88,120,71,102,30,72,55,95,59,100,53,87,0,48,106,100,46,93,94,64,119,0,0,0,0,0,0,0,0,0,0,0,0,0,0,0,0,0,0,0,0,0,0,0,0,0,0,0,0,0,0,0,0,0,0,0,0,0,0,0,0,0,0,0,0,0,0,0,0,0,0,0,0,0,0,0,0,0,0,0,0,0,0],"split_type":[0,0,0,0,0,0,0,0,0,0,0,0,0,0,0,0,0,0,0,0,0,0,0,0,0,0,0,0,0,0,0,0,0,0,0,0,0,0,0,0,0,0,0,0,0,0,0,0,0,0,0,0,0,0,0,0,0,0,0,0,0,0,0,0,0,0,0,0,0,0,0,0,0,0,0,0,0,0,0,0,0,0,0,0,0,0,0,0,0,0,0,0,0,0,0,0,0,0,0,0,0,0,0,0,0,0,0,0,0,0,0,0,0,0,0,0,0,0,0,0,0,0,0,0,0],"sum_hessian":[1.1608E4,6.545E3,5.063E3,5.95E3,5.95E2,7.64E2,4.299E3,8.08E2,5.142E3,2.21E2,3.74E2,5.19E2,2.45E2,3.738E3,5.61E2,6.99E2,1.09E2,4.04E3,1.102E3,8.4E1,1.37E2,1.56E2,2.18E2,1.58E2,3.61E2,1.79E2,6.6E1,2.048E3,1.69E3,4.28E2,1.33E2,2.09E2,4.9E2,6.5E1,4.4E1,2.104E3,1.936E3,1.47E2,9.55E2,7.8E1,6E0,6.1E1,7.6E1,2.9E1,1.27E2,1.84E2,3.4E1,1.48E2,1E1,3.9E1,3.22E2,4.5E1,1.34E2,6E1,6E0,3.44E2,1.704E3,1.489E3,2.01E2,2.95E2,1.33E2,8.1E1,5.2E1,1.2E1,1.97E2,1.8E2,3.1E2,5.4E1,1.1E1,1E1,3.4E1,1.479E3,6.25E2,1.633E3,3.03E2,1.35E2,1.2E1,4.31E2,5.24E2,4.4E1,3.4E1,3E0,3E0,2.5E1,3.6E1,3.2E1,4.4E1,2E1,9E0,5E0,1.22E2,1.55E2,2.9E1,2.8E1,6E0,1.43E2,5E0,5E0,5E0,2.9E1,1E1,9.1E1,2.31E2,1.6E1,2.9E1,3.4E1,1E2,2.5E1,3.5E1,3.3E2,1.4E1,1.573E3,1.31E2,3.33E2,1.156E3,2.2E1,1.79E2,2.88E2,7E0,1.25E2,8E0,3.9E1,4.2E1,4.1E1,1.1E1],"tree_param":{"num_deleted":"0","num_feature":"128","num_nodes":"125","size_leaf_vector":"1"}},{"base_weights":[-7.3313706E-2,-1.3739965E0,1.5993731E0,-1.7018408E0,2.417769E0,-2.6165726E0,2.2146106E0,-2.2102802E0,5.127214E-1,2.0167792E0,1.0276699E1,-2.8422575E0,8.608548E0,1.0277954E0,4.144423E0,-5.6099663E0,-1.9820143E0,-2.7943413E0,1.0214963E0,2.8557558E0,-3.1839707E-1,1.2574729E1,-1.4303677E-1,-7.3407774E0,-2.4199855E0,1.6496662E0,-3.343695E-1,4.700768E-1,4.184804E0,3.0287209E0,6.4894214E0,-7.758549E0,-3.5346658E0,-2.2143347E0,1.6505455E0,-5.0816464E0,3.6227882E0,-1.20005E0,1.7375159E0,1.0804417E0,4.2360964E0,-2.326267E0,3.891526E0,6.526003E0,1.656744E0,2.6016018E-1,-7.976635E0,-3.2158175E0,4.5654517E-1,-6.34144E-2,4.2603073E0,4.705603E0,-3.4156842E0,2.6266892E0,1.0129962E1,1.5108397E0,8.1820965E0,-8.697591E-1,-3.158561E-1,-5.402444E-1,8.5820965E-2,-1.7278378E-1,-3.4148765E-1,-2.9795524E-1,2.896074E-1,-6.901011E-1,-1.6797484E-1,-1.6080199E-1,8.933997E-1,8.435585E-1,-1.9325083E-1,8.6594544E-2,3.8918015E-1,2.1337187E-1,-4.2259598E-1,1.5007064E-1,5.7698226E-1,-5.6460625E-1,-4.8627175E-2,-5.405473E-1,5.545241E-1,3.602996E-2,9.1169757E-1,-8.9843506E-1,-1.437125E-1,-3.6251956E-1,6.9983944E-2,2.7479354E-1,-2.6919627E-1,-2.1259688E-2,1.032496E0,-2.3957053E-1,5.913071E-1,-1.01258054E-1,5.540035E-1,-1.4939634E0,1.3646796E-1,-1.2998877E-1,3.2580116E-1,1.2024002E0,2.211659E-1,-1.0136081E0,2.0210688E-1,1.0896983E0,3.2913262E-1],"categories":[],"categories_nodes":[],"categories_segments":[],"categories_sizes":[],"default_left":[0,0,0,0,0,0,0,0,0,0,0,0,0,0,0,0,0,0,0,0,0,0,0,0,0,0,0,0,0,0,0,0,0,0,0,0,0,0,0,0,0,0,0,0,0,0,0,0,0,0,0,0,0,0,0,0,0,0,0,0,0,0,0,0,0,0,0,0,0,0,0,0,0,0,0,0,0,0,0,0,0,0,0,0,0,0,0,0,0,0,0,0,0,0,0,0,0,0,0,0,0,0,0,0,0],"id":11,"left_children":[1,3,5,7,9,11,13,15,17,19,21,23,25,27,29,31,33,35,37,39,41,43,-1,45,47,-1,-1,49,51,53,55,57,59,61,63,65,67,69,71,73,75,77,79,81,-1,-1,83,85,87,89,91,93,95,97,99,101,103,-1,-1,-1,-1,-1,-1,-1,-1,-1,-1,-1,-1,-1,-1,-1,-1,-1,-1,-1,-1,-1,-1,-1,-1,-1,-1,-1,-1,-1,-1,-1,-1,-1,-1,-1,-1,-1,-1,-1,-1,-1,-1,-1,-1,-1,-1,-1,-1],"loss_changes":[2.5250441E4,8.120371E3,1.3174557E4,6.768215E3,1.617977E3,1.66354E3,1.0144195E4,3.782125E3,1.8923585E3,9.726521E2,6.905664E2,1.188481E3,1.2808083E3,4.8312163E3,4.394076E3,1.3414756E3,3.8704883E3,2.2200996E3,1.5513986E3,8.898694E2,1.1248458E3,3.9904785E2,0E0,3.6213647E2,1.333803E3,0E0,0E0,4.719746E3,1.6469028E3,3.2422803E3,4.5635664E3,6.2046484E2,1.3010132E3,2.5096445E3,1.6002986E3,6.754197E2,1.1256426E3,1.6960347E3,1.3804299E3,9.088638E2,8.5138574E2,5.4701117E2,6.9108203E2,1.5646686E2,0E0,0E0,3.231765E2,7.3349805E2,9.2363367E2,3.174561E3,3.182401E3,1.8473828E3,1.5077819E3,2.69388E3,8.8825977E2,8.465066E2,5.3416777E3,0E0,0E0,0E0,0E0,0E0,0E0,0E0,0E0,0E0,0E0,0E0,0E0,0E0,0E0,0E0,0E0,0E0,0E0,0E0,0E0,0E0,0E0,0E0,0E0,0E0,0E0,0E0,0E0,0E0,0E0,0E0,0E0,0E0,0E0,0E0,0E0,0E0,0E0,0E0,0E0,0E0,0E0,0E0,0E0,0E0,0E0,0E0,0E0],"parents":[2147483647,0,0,1,1,2,2,3,3,4,4,5,5,6,6,7,7,8,8,9,9,10,10,11,11,12,12,13,13,14,14,15,15,16,16,17,17,18,18,19,19,20,20,21,21,23,23,24,24,27,27,28,28,29,29,30,30,31,31,32,32,33,33,34,34,35,35,36,36,37,37,38,38,39,39,40,40,41,41,42,42,43,43,46,46,47,47,48,48,49,49,50,50,51,51,52,52,53,53,54,54,55,55,56,56],"right_children":[2,4,6,8,10,12,14,16,18,20,22,24,26,28,30,32,34,36,38,40,42,44,-1,46,48,-1,-1,50,52,54,56,58,60,62,64,66,68,70,72,74,76,78,80,82,-1,-1,84,86,88,90,92,94,96,98,100,102,104,-1,-1,-1,-1,-1,-1,-1,-1,-1,-1,-1,-1,-1,-1,-1,-1,-1,-1,-1,-1,-1,-1,-1,-1,-1,-1,-1,-1,-1,-1,-1,-1,-1,-1,-1,-1,-1,-1,-1,-1,-1,-1,-1,-1,-1,-1,-1,-1],"split_conditions":[2.8E1,3E0,-1.05E1,3.46E1,4.7432992E-1,3.02992E-1,2.94E1,2.7044025E-1,-9.5E0,4.1547278E-1,3.14E1,1.945695E-2,1.73E1,4.42E1,2.022E3,4.636002E-2,4.1866666E-1,1.2725E2,1.14E1,2.73E1,3.1845713E-1,3.858586E-1,-1.4303677E-1,3.7063953E-1,3.04E1,1.6496662E0,-3.343695E-1,2.83E1,1.7E2,5.2E-1,5E0,5.52E1,3.0150905E0,7.5E-1,2.2E1,1.2435733E0,4.291939E-1,4.72E1,4.4E1,1.13170885E-1,-2.197869E0,4.1687346E-1,3.0258304E-1,1.5E-1,1.656744E0,2.6016018E-1,4.7044024E-1,5.025747E-1,2.1E1,5.242105E-1,1.3211286E-1,1.95E1,1E0,2.86E1,1.6141634E-1,9.099526E-1,-5.5E0,-8.697591E-1,-3.158561E-1,-5.402444E-1,8.5820965E-2,-1.7278378E-1,-3.4148765E-1,-2.9795524E-1,2.896074E-1,-6.901011E-1,-1.6797484E-1,-1.6080199E-1,8.933997E-1,8.435585E-1,-1.9325083E-1,8.6594544E-2,3.8918015E-1,2.1337187E-1,-4.2259598E-1,1.5007064E-1,5.7698226E-1,-5.6460625E-1,-4.8627175E-2,-5.405473E-1,5.545241E-1,3.602996E-2,9.1169757E-1,-8.9843506E-1,-1.437125E-1,-3.6251956E-1,6.9983944E-2,2.7479354E-1,-2.6919627E-1,-2.1259688E-2,1.032496E0,-2.3957053E-1,5.913071E-1,-1.01258054E-1,5.540035E-1,-1.4939634E0,1.3646796E-1,-1.2998877E-1,3.2580116E-1,1.2024002E0,2.211659E-1,-1.0136081E0,2.0210688E-1,1.0896983E0,3.2913262E-1],"split_indices":[106,110,110,100,70,57,100,37,110,94,120,40,45,106,0,23,75,127,106,48,93,94,0,77,119,0,0,48,126,39,1,102,62,98,51,25,41,102,100,15,122,41,90,8,0,0,77,5,45,75,57,48,3,119,87,83,110,0,0,0,0,0,0,0,0,0,0,0,0,0,0,0,0,0,0,0,0,0,0,0,0,0,0,0,0,0,0,0,0,0,0,0,0,0,0,0,0,0,0,0,0,0,0,0,0],"split_type":[0,0,0,0,0,0,0,0,0,0,0,0,0,0,0,0,0,0,0,0,0,0,0,0,0,0,0,0,0,0,0,0,0,0,0,0,0,0,0,0,0,0,0,0,0,0,0,0,0,0,0,0,0,0,0,0,0,0,0,0,0,0,0,0,0,0,0,0,0,0,0,0,0,0,0,0,0,0,0,0,0,0,0,0,0,0,0,0,0,0,0,0,0,0,0,0,0,0,0,0,0,0,0,0,0],"sum_hessian":[1.1604E4,6.528E3,5.076E3,6.009E3,5.19E2,6.46E2,4.43E3,4.887E3,1.122E3,4.95E2,2.4E1,6.34E2,1.2E1,2.744E3,1.686E3,3.06E2,4.581E3,1.49E2,9.73E2,3.64E2,1.31E2,2E1,4E0,5.3E1,5.81E2,7E0,5E0,2.333E3,4.11E2,1.144E3,5.42E2,1.49E2,1.57E2,4.306E3,2.75E2,1.1E2,3.9E1,2.37E2,7.36E2,1.6E2,2.04E2,8.9E1,4.2E1,9E0,1.1E1,3E0,5E1,4.55E2,1.26E2,2.046E3,2.87E2,3.85E2,2.6E1,1.084E3,6E1,1.38E2,4.04E2,1.23E2,2.6E1,1.1E2,4.7E1,3.066E3,1.24E3,5.8E1,2.17E2,7.1E1,3.9E1,2E1,1.9E1,1.6E1,2.21E2,5.25E2,2.11E2,1.34E2,2.6E1,7.4E1,1.3E2,3.1E1,5.8E1,6E0,3.6E1,3E0,6E0,4.3E1,7E0,4.12E2,4.3E1,7.3E1,5.3E1,2.018E3,2.8E1,5.7E1,2.3E2,4.9E1,3.36E2,7E0,1.9E1,1.5E2,9.34E2,4.8E1,1.2E1,5E0,1.33E2,2.59E2,1.45E2],"tree_param":{"num_deleted":"0","num_feature":"128","num_nodes":"105","size_leaf_vector":"1"}},{"base_weights":[4.3808173E-2,-1.6155993E0,1.2197407E0,-1.8786933E0,1.9473093E0,-1.740642E0,1.8412212E0,-8.9715177E-1,-2.729614E0,-3.3287936E-1,5.3958116E0,-2.4713736E0,2.4751067E0,1.500017E0,6.169973E0,-4.2677636E0,-5.39648E-2,-4.028345E0,-1.6488756E0,7.895209E0,-9.8760515E-1,-6.0837522E-2,6.917962E0,-5.4168577E0,-1.7491372E0,-1.506012E0,5.885387E0,-2.5465126E0,1.8830773E0,4.902494E0,9.574263E0,-4.9318714E0,5.269187E-1,-2.035966E0,6.9950026E-1,-4.4652867E0,-3.9614877E-1,-1.8657904E0,5.1738963E0,1.2201929E1,-5.9852537E-2,-2.6783946E0,1.2789735E0,-3.3273566E0,5.116221E0,3.363794E0,8.998713E0,-1.1817908E0,-6.313477E0,-2.06862E0,5.4298673E0,-5.1519537E0,6.9649196E-1,6.9284387E0,-3.6733973E0,1.0745279E0,-3.6121585E0,2.6331308E0,-1.4010715E-1,5.359146E0,-3.0952566E0,4.944481E0,1.2215357E1,-5.190305E-1,2.5445014E-1,2.0941272E-1,-7.193536E-1,-5.754527E-1,1.04645066E-1,8.9170866E-2,-8.900021E-1,-2.6754883E-1,-5.188153E-1,3.4948972E-1,-2.895916E-1,-2.0662947E-1,3.8226306E-1,7.146968E-1,-5.4305923E-1,1.6538004E0,6.554878E-1,-1.0414006E0,-1.9554058E-1,-6.482863E-2,6.4770013E-1,-6.981178E-1,1.5081307E-1,1.2483621E-1,1.2539848E0,6.7114633E-1,-3.3326957E-1,2.2255254E-1,1.1164945E0,4.2266354E-1,-3.4245178E-1,-6.6562706E-1,3.8227934E-1,-7.6371115E-1,-1.6113453E-1,-4.9634665E-2,1.0446486E0,-6.6710234E-1,4.9250363E-3,-1.15867235E-1,5.8147E-1,-3.4277174E-1,7.6100254E-1,-4.7068086E-1,-9.46578E-2,2.3208144E-1,-5.925099E-1,2.3036134E-1,-4.0925083E-1,1.808624E-1,4.498323E-1,-8.054153E-2,3.3470368E-1,6.801998E-1,2.0727794E-1,2.1558428E-1,-1.0904804E0,1.0989667E0,-4.7312183E-3,1.0247921E0,2.087064E0],"categories":[],"categories_nodes":[],"categories_segments":[],"categories_sizes":[],"default_left":[0,0,0,0,0,0,0,0,0,0,0,0,0,0,0,0,0,0,0,0,0,0,0,0,0,0,0,0,0,0,0,0,0,0,0,0,0,0,0,0,0,0,0,0,0,0,0,0,0,0,0,0,0,0,0,0,0,0,0,0,0,0,0,0,0,0,0,0,0,0,0,0,0,0,0,0,0,0,0,0,0,0,0,0,0,0,0,0,0,0,0,0,0,0,0,0,0,0,0,0,0,0,0,0,0,0,0,0,0,0,0,0,0,0,0,0,0,0,0,0,0,0,0,0,0],"id":12,"left_children":[1,3,5,7,9,11,13,15,17,19,21,23,25,27,29,31,33,35,37,39,41,43,45,47,49,51,53,55,57,59,61,63,65,67,69,71,73,75,77,79,-1,81,83,85,87,89,91,93,95,97,99,101,103,105,107,109,111,113,115,117,119,121,123,-1,-1,-1,-1,-1,-1,-1,-1,-1,-1,-1,-1,-1,-1,-1,-1,-1,-1,-1,-1,-1,-1,-1,-1,-1,-1,-1,-1,-1,-1,-1,-1,-1,-1,-1,-1,-1,-1,-1,-1,-1,-1,-1,-1,-1,-1,-1,-1,-1,-1,-1,-1,-1,-1,-1,-1,-1,-1,-1,-1,-1,-1],"loss_changes":[2.2819121E4,4.549951E3,1.2594935E4,3.770212E3,2.6281167E3,3.665847E3,8.346064E3,5.9652456E3,3.3886387E3,1.096E3,1.1050979E3,2.145517E3,2.3983682E3,8.134884E3,1.7351025E3,1.339956E3,2.5102832E3,1.7408223E3,1.9661611E3,5.560052E2,7.238993E2,5.2435236E2,7.388447E2,7.481904E2,1.8804905E3,6.620648E2,9.726301E2,1.7557522E3,7.272215E3,1.1232021E3,1.296876E3,7.261699E2,6.442414E2,5.312999E3,2.2552778E3,1.2540293E3,1.1675992E3,1.4700864E3,8.9667236E2,1.3645581E2,0E0,5.836547E2,8.1565283E2,3.4622058E2,3.289083E2,9.190727E2,9.2885156E2,4.5114066E2,5.952876E2,1.9763777E3,1.0457196E3,2.452594E2,5.0048343E2,6.33126E2,2.3723907E1,9.2099927E2,1.00684375E3,5.3682344E3,3.011768E3,1.3467793E3,7.206571E2,1.2679252E3,9.781289E2,0E0,0E0,0E0,0E0,0E0,0E0,0E0,0E0,0E0,0E0,0E0,0E0,0E0,0E0,0E0,0E0,0E0,0E0,0E0,0E0,0E0,0E0,0E0,0E0,0E0,0E0,0E0,0E0,0E0,0E0,0E0,0E0,0E0,0E0,0E0,0E0,0E0,0E0,0E0,0E0,0E0,0E0,0E0,0E0,0E0,0E0,0E0,0E0,0E0,0E0,0E0,0E0,0E0,0E0,0E0,0E0,0E0,0E0,0E0,0E0,0E0,0E0],"parents":[2147483647,0,0,1,1,2,2,3,3,4,4,5,5,6,6,7,7,8,8,9,9,10,10,11,11,12,12,13,13,14,14,15,15,16,16,17,17,18,18,19,19,20,20,21,21,22,22,23,23,24,24,25,25,26,26,27,27,28,28,29,29,30,30,31,31,32,32,33,33,34,34,35,35,36,36,37,37,38,38,39,39,41,41,42,42,43,43,44,44,45,45,46,46,47,47,48,48,49,49,50,50,51,51,52,52,53,53,54,54,55,55,56,56,57,57,58,58,59,59,60,60,61,61,62,62],"right_children":[2,4,6,8,10,12,14,16,18,20,22,24,26,28,30,32,34,36,38,40,42,44,46,48,50,52,54,56,58,60,62,64,66,68,70,72,74,76,78,80,-1,82,84,86,88,90,92,94,96,98,100,102,104,106,108,110,112,114,116,118,120,122,124,-1,-1,-1,-1,-1,-1,-1,-1,-1,-1,-1,-1,-1,-1,-1,-1,-1,-1,-1,-1,-1,-1,-1,-1,-1,-1,-1,-1,-1,-1,-1,-1,-1,-1,-1,-1,-1,-1,-1,-1,-1,-1,-1,-1,-1,-1,-1,-1,-1,-1,-1,-1,-1,-1,-1,-1,-1,-1,-1,-1,-1,-1],"split_conditions":[2.3333334E1,3.0827823E-1,-7.5E0,3.3333334E-1,2.6129398E-1,3.2257706E-1,3.56E1,-8E0,1.7E1,9.9856347E-1,3.7949286E-2,-2.9E1,2.13E1,2.83E1,2.403839E-1,4.6562123E-1,5.645E1,2.9411277E-1,5.2115493E0,1.08E2,2.7639356E-1,1.4215456E0,1.387E3,1.098627E0,3.67E1,1.5237103E-1,1.756E3,1.269E3,8E-1,3.95E1,1.6945606E-1,3.4928281E0,4.8023716E-1,1.1E2,1.62E3,3E0,1.8723404E-1,1.9226229E-1,7.6666665E-1,4.3791574E-1,-5.9852537E-2,6.0465115E-1,1.9767442E-1,8.3E1,1.2648243E0,-8.581E0,9.6837944E-1,1.432E3,1.9357278E0,4.6910644E-2,4E0,1.2478168E0,6E-1,4.74E1,3.542126E0,1.7784091E0,4.06E1,4E0,5.7E1,4.2465752E-1,1.959707E-1,3.28E1,3.0220556E0,-5.190305E-1,2.5445014E-1,2.0941272E-1,-7.193536E-1,-5.754527E-1,1.04645066E-1,8.9170866E-2,-8.900021E-1,-2.6754883E-1,-5.188153E-1,3.4948972E-1,-2.895916E-1,-2.0662947E-1,3.8226306E-1,7.146968E-1,-5.4305923E-1,1.6538004E0,6.554878E-1,-1.0414006E0,-1.9554058E-1,-6.482863E-2,6.4770013E-1,-6.981178E-1,1.5081307E-1,1.2483621E-1,1.2539848E0,6.7114633E-1,-3.3326957E-1,2.2255254E-1,1.1164945E0,4.2266354E-1,-3.4245178E-1,-6.6562706E-1,3.8227934E-1,-7.6371115E-1,-1.6113453E-1,-4.9634665E-2,1.0446486E0,-6.6710234E-1,4.9250363E-3,-1.15867235E-1,5.8147E-1,-3.4277174E-1,7.6100254E-1,-4.7068086E-1,-9.46578E-2,2.3208144E-1,-5.925099E-1,2.3036134E-1,-4.0925083E-1,1.808624E-1,4.498323E-1,-8.054153E-2,3.3470368E-1,6.801998E-1,2.0727794E-1,2.1558428E-1,-1.0904804E0,1.0989667E0,-4.7312183E-3,1.0247921E0,2.087064E0],"split_indices":[106,70,110,98,40,74,48,110,106,78,72,110,48,119,57,24,56,36,122,118,21,32,95,25,48,36,95,52,98,99,80,9,20,126,52,96,80,34,7,58,0,7,8,126,78,124,83,95,66,57,96,6,121,109,9,32,109,104,111,94,80,106,81,0,0,0,0,0,0,0,0,0,0,0,0,0,0,0,0,0,0,0,0,0,0,0,0,0,0,0,0,0,0,0,0,0,0,0,0,0,0,0,0,0,0,0,0,0,0,0,0,0,0,0,0,0,0,0,0,0,0,0,0,0,0],"split_type":[0,0,0,0,0,0,0,0,0,0,0,0,0,0,0,0,0,0,0,0,0,0,0,0,0,0,0,0,0,0,0,0,0,0,0,0,0,0,0,0,0,0,0,0,0,0,0,0,0,0,0,0,0,0,0,0,0,0,0,0,0,0,0,0,0,0,0,0,0,0,0,0,0,0,0,0,0,0,0,0,0,0,0,0,0,0,0,0,0,0,0,0,0,0,0,0,0,0,0,0,0,0,0,0,0,0,0,0,0,0,0,0,0,0,0,0,0,0,0,0,0,0,0,0,0],"sum_hessian":[1.1692E4,4.849E3,6.843E3,4.516E3,3.33E2,1.187E3,5.656E3,2.098E3,2.418E3,2.01E2,1.32E2,1.012E3,1.75E2,5.244E3,4.12E2,4.19E2,1.679E3,1.097E3,1.321E3,1.4E1,1.87E2,2.9E1,1.03E2,1.98E2,8.14E2,8.1E1,9.4E1,4.53E2,4.791E3,3.02E2,1.1E2,3.68E2,5.1E1,4.62E2,1.217E3,9.79E2,1.18E2,1.281E3,4E1,9E0,5E0,1.07E2,8E1,1.8E1,1.1E1,3.9E1,6.4E1,3.5E1,1.63E2,7.8E2,3.4E1,3E1,5.1E1,8.5E1,9E0,1.03E2,3.5E2,3.495E3,1.296E3,2.86E2,1.6E1,4.1E1,6.9E1,3.56E2,1.2E1,4.3E1,8E0,2.09E2,2.53E2,1.194E3,2.3E1,2.83E2,6.96E2,4.6E1,7.2E1,1.238E3,4.3E1,3.4E1,6E0,4E0,5E0,8E0,9.9E1,5.9E1,2.1E1,1E1,8E0,8E0,3E0,2.6E1,1.3E1,1.6E1,4.8E1,1E1,2.5E1,1.58E2,5E0,5.8E1,7.22E2,1.6E1,1.8E1,2.3E1,7E0,3.8E1,1.3E1,5E0,8E1,6E0,3E0,8.8E1,1.5E1,2.6E1,3.24E2,2.425E3,1.07E3,1.089E3,2.07E2,1.98E2,8.8E1,1E1,6E0,1.8E1,2.3E1,5.8E1,1.1E1],"tree_param":{"num_deleted":"0","num_feature":"128","num_nodes":"125","size_leaf_vector":"1"}},{"base_weights":[-5.966498E-3,-1.1133723E0,1.4688869E0,-1.4181726E0,1.8129289E0,-1.2907605E-1,2.5793152E0,-1.8443538E0,6.787747E-1,2.0409767E-2,4.2633E0,-5.4936665E-1,4.7063217E0,-1.6113654E0,3.180913E0,-4.528733E0,-1.5705253E0,-9.312915E0,8.9704007E-1,-8.979177E-1,3.6562142E0,3.5785518E0,1.0472754E1,-3.5595007E0,-1.0524458E-1,1.4437996E0,6.55687E0,-3.0331452E0,3.8047652E0,1.5298553E-1,3.7758136E0,-4.7196765E0,8.665935E0,-4.663025E0,-1.3021015E0,-1.2416514E1,-3.4503264E0,-7.554016E-1,1.802082E0,-3.4741848E0,4.5493668E-1,-3.1895578E0,5.753893E0,-4.9204484E-1,4.7784176E0,4.770509E0,1.5808036E1,-3.8787389E0,9.7500753E-1,-4.639692E-1,4.2892566E0,9.724564E0,-1.7165734E0,1.2192493E-1,7.798599E0,7.8192477E0,-3.400709E0,1.0159229E-1,9.124902E0,-8.659517E-1,5.5451097E0,3.0933762E0,7.1832123E0,-9.212091E-2,-5.2762556E-1,-1.4507194E-1,1.6616106E0,6.1316367E-2,-5.2780354E-1,-6.1069334E-1,-1.1921072E-1,-1.356809E0,-6.1455536E-1,-1.0468329E0,1.8033959E-1,-8.970642E-1,-1.8741976E-2,6.6745603E-1,1.0559203E-1,-7.4575275E-1,-1.5187576E-1,-3.7389597E-1,1.5413062E-1,3.4247458E-1,-1.0184388E0,-5.2470923E-3,7.8288436E-1,-1.7036587E-1,1.5684851E0,3.2474166E-1,9.986696E-1,9.3807554E-1,-1.17984556E-1,1.9385964E0,9.971817E-1,-5.182392E-1,-1.4114936E-1,-1.077426E-1,1.737783E-1,6.512987E-1,-2.1075983E-1,-7.337176E-2,1.4143324E0,2.4661902E-1,-5.161432E-1,-3.597841E-1,6.481249E-1,-8.599587E-2,8.795902E-1,1.978705E-1,1.0039666E0,-3.983219E-1,1.9189732E-1,-3.322172E-1,5.802222E-1,-5.3937894E-1,1.0812829E0,-6.973143E-1,-2.896218E-2,2.9247585E-1,1.1687715E0,-2.1352826E-1,3.443213E-1,1.2721913E-1,8.241493E-1],"categories":[],"categories_nodes":[],"categories_segments":[],"categories_sizes":[],"default_left":[0,0,0,0,0,0,0,0,0,0,0,0,0,0,0,0,0,0,0,0,0,0,0,0,0,0,0,0,0,0,0,0,0,0,0,0,0,0,0,0,0,0,0,0,0,0,0,0,0,0,0,0,0,0,0,0,0,0,0,0,0,0,0,0,0,0,0,0,0,0,0,0,0,0,0,0,0,0,0,0,0,0,0,0,0,0,0,0,0,0,0,0,0,0,0,0,0,0,0,0,0,0,0,0,0,0,0,0,0,0,0,0,0,0,0,0,0,0,0,0,0,0,0,0,0],"id":13,"left_children":[1,3,5,7,9,11,13,15,17,19,21,23,25,27,29,31,33,35,37,39,41,43,45,47,49,51,53,55,57,59,61,63,65,67,69,71,73,75,77,79,81,83,85,87,89,91,93,95,-1,97,99,101,103,105,107,109,111,113,115,117,119,121,123,-1,-1,-1,-1,-1,-1,-1,-1,-1,-1,-1,-1,-1,-1,-1,-1,-1,-1,-1,-1,-1,-1,-1,-1,-1,-1,-1,-1,-1,-1,-1,-1,-1,-1,-1,-1,-1,-1,-1,-1,-1,-1,-1,-1,-1,-1,-1,-1,-1,-1,-1,-1,-1,-1,-1,-1,-1,-1,-1,-1,-1,-1],"loss_changes":[1.914509E4,5.974093E3,8.920358E3,5.4205244E3,2.77587E3,4.1931313E3,7.4827207E3,3.697586E3,2.2437146E3,1.2253054E3,1.0977827E3,2.5369988E3,9.867134E2,2.8838438E3,4.672035E3,1.214958E3,3.7916387E3,3.5745178E2,1.5028723E3,1.0227777E3,1.0810093E3,1.1843203E3,7.155879E2,1.0745562E3,2.6109583E3,1.6130813E3,8.3804736E2,1.2073191E3,1.535781E3,2.3508408E3,5.0191094E3,9.6764746E2,5.871092E2,1.1876284E3,2.218249E3,1.7717285E1,3.5071423E2,1.6594529E3,2.352493E3,7.7537646E2,8.8509436E2,8.6766565E2,6.871421E2,1.1243301E3,1.4586846E3,3.9512424E2,7.814746E1,7.614126E2,0E0,2.069763E3,1.7918367E3,7.959918E2,6.611353E2,4.4911206E2,7.674624E2,1.0981885E2,8.9699E2,9.3660376E2,8.425293E2,1.265093E3,1.0603291E3,3.3145059E3,2.2477578E3,0E0,0E0,0E0,0E0,0E0,0E0,0E0,0E0,0E0,0E0,0E0,0E0,0E0,0E0,0E0,0E0,0E0,0E0,0E0,0E0,0E0,0E0,0E0,0E0,0E0,0E0,0E0,0E0,0E0,0E0,0E0,0E0,0E0,0E0,0E0,0E0,0E0,0E0,0E0,0E0,0E0,0E0,0E0,0E0,0E0,0E0,0E0,0E0,0E0,0E0,0E0,0E0,0E0,0E0,0E0,0E0,0E0,0E0,0E0,0E0,0E0,0E0],"parents":[2147483647,0,0,1,1,2,2,3,3,4,4,5,5,6,6,7,7,8,8,9,9,10,10,11,11,12,12,13,13,14,14,15,15,16,16,17,17,18,18,19,19,20,20,21,21,22,22,23,23,24,24,25,25,26,26,27,27,28,28,29,29,30,30,31,31,32,32,33,33,34,34,35,35,36,36,37,37,38,38,39,39,40,40,41,41,42,42,43,43,44,44,45,45,46,46,47,47,49,49,50,50,51,51,52,52,53,53,54,54,55,55,56,56,57,57,58,58,59,59,60,60,61,61,62,62],"right_children":[2,4,6,8,10,12,14,16,18,20,22,24,26,28,30,32,34,36,38,40,42,44,46,48,50,52,54,56,58,60,62,64,66,68,70,72,74,76,78,80,82,84,86,88,90,92,94,96,-1,98,100,102,104,106,108,110,112,114,116,118,120,122,124,-1,-1,-1,-1,-1,-1,-1,-1,-1,-1,-1,-1,-1,-1,-1,-1,-1,-1,-1,-1,-1,-1,-1,-1,-1,-1,-1,-1,-1,-1,-1,-1,-1,-1,-1,-1,-1,-1,-1,-1,-1,-1,-1,-1,-1,-1,-1,-1,-1,-1,-1,-1,-1,-1,-1,-1,-1,-1,-1,-1,-1,-1],"split_conditions":[2.82E1,1.5946263E-1,2.32E1,3.65E1,1.3839442E0,3.8686132E-1,2.84E1,3.3E1,-3.952916E-3,2.98E1,2.3076923E-1,1.71E1,2.403839E-1,3.74E1,2E0,1.4254381E1,-2.8E1,1.11E2,3E0,2.83E1,2.9317096E-1,1.183996E0,6.4E1,2.7E1,3.5E1,-1.1562368E-2,1.15E1,-1.1197195E-2,3.227386E0,2.405E0,3.8333332E1,-1.975E1,3.7507467E-2,1.8609865E-1,2.4074075E-1,1.9516807E0,3.4E1,6.904762E-1,-3.44E1,7.0652175E-1,1.56E1,2.019E3,-5.4E0,8.1666666E-1,4.493927E-1,2.5684038E-1,1.3356644E0,1.8125701E-1,9.7500753E-1,2.94E1,2.93E1,3.0973452E-1,5.975E1,4.1590908E-1,5.05E1,1.1107785E0,4.466994E-1,7.1428573E-1,4.016265E-2,1E0,